#include "parameters.h"

float_t c1_kernels[6][25] = {
    {
        0.0503702, 0.321829, 0.178996, 0.291132, -0.102737,
        -0.043053, 0.0800959, 0.260101, -0.0331972, -0.0382014,
        -0.115718, -0.0159754, -0.115343, -0.0055044, -0.00718199,
        -0.00923267, -0.0708757, 0.0664141, 0.016911, 0.157364,
        -0.0537186, -0.0435987, 0.0133913, -0.0243876, -0.123523
    },{
        -0.0770365, 0.0345966, -0.160769, -0.225885, -0.119277,
        -0.0264168, 0.0616594, -0.131291, -0.0888015, -0.0878033,
        -0.0321225, -0.053587, 0.157665, -0.00792996, 0.14707,
        0.118949, 0.164109, 0.179299, 0.2048, 0.02664,
        -0.112001, 0.14574, 0.0809537, 0.183332, 0.200962
    },{
        0.16622, 0.0980283, -0.154528, 0.0794689, -0.149562,
        -0.0489036, -0.143187, -0.166235, 0.106519, 0.077899,
        -0.167934, -0.0211066, -0.0540232, 0.065682, 0.201788,
        -0.0860653, -0.023683, -0.104004, 0.126629, 0.00943944,
        -0.0664681, -0.0823138, 0.110359, 0.111226, 0.132523
    },{
        -0.0193047, -0.148967, -0.129466, 0.117262, 0.0556525,
        0.177834, 0.0465613, 0.064182, -0.0560068, -0.0997407,
        -0.00353711, 0.0869634, -0.150035, -0.136275, -0.159884,
        0.00542482, -0.0268633, 0.096359, -0.105669, -0.126976,
        0.144686, -0.0741221, -0.100288, -0.0635448, -0.0388995
    },{
        -0.193615, -0.154315, 0.0477816, 0.174346, -0.0321918,
        0.0878409, -0.0274826, 0.0644111, 0.086192, 0.0962856,
        -0.101726, 0.123956, 0.0949929, 0.0642185, -0.0504073,
        0.248567, 0.0775272, -0.099301, 0.101063, 0.0305015,
        -0.107393, -0.00542532, -0.0396422, 0.176904, 0.150425
    },{
        -0.0159969, -0.0330545, 0.0151124, -0.155135, 0.0267772,
       0.0603045, -0.119766, 0.0301981, -0.178801, -0.0762496,
       0.116541, 0.16019, -0.207605, -0.0729984, 0.0412346,
       0.214281, 0.092025, -0.0666976, -0.0286977, -0.121057,
       0.182971, 0.154956, 0.0157412, -0.010005, 0.00333844
    }
};

float_t c1_bias[6] = {
    -0.00347255, 0.0908163, 0.0125789, 0.027025, 0.0268217, -0.0190336
};

float_t c3_kernels[96][25] = {
    {
        -0.0568528, -0.0463354, -0.03578, -0.120156, -0.0533414,
        -0.0277002, -0.0131529, -0.0940678, -0.0759403, -0.148139,
        0.0337102, 0.065542, -0.0546912, -0.0780648, -0.0457306,
        0.0383117, 0.0793079, 0.0453214, 0.00866386, -0.0123629,
        0.0985864, 0.0960361, 0.104646, 0.170759, 0.0816301
    },{
        -0.0332654, -0.0172556, -0.0659533, -0.0447346, -0.138483,
        -0.00433603, 0.0817107, 0.0804332, -0.0901738, -0.106393,
        0.0474304, 0.112541, 0.176652, 0.0940123, -0.0181163,
        0.0281919, 0.123807, 0.172271, 0.117256, 0.155774,
        -0.0488181, -0.0644844, 0.061714, 0.0798159, 0.0023315
    },{
        -0.0677047, -0.0730644, -0.0866029, -0.0533266, 0.0225568,
        -0.010696, -0.0603815, -0.111806, 0.0237106, -0.019256,
        -0.0237477, -0.00931628, -0.0844439, -0.0453296, -0.0194383,
        0.0162541, 0.00897978, -0.0243605, 0.0048865, -0.0348608,
        -0.0508073, -0.0329698, -0.0682046, -0.0160006, 0.069999

    },{
        -0.0643483, 0.041114, -0.00745508, -0.0906596, -0.0563254,
        0.0533645, 0.00172286, 0.053033, -0.0608781, 0.0883669,
        -0.0941473, 0.0441861, 0.00394012, -0.0784872, -0.0684588,
        -0.100294, -0.0216594, -0.0989713, -0.0820187, -0.0985336,
        0.0020493, -0.0530148, -0.0831112, 0.0752074, -0.0441354

    },{
        0.00811154, -0.0560338, 0.0110342, 0.0976926, 0.0714479,
        -0.0463077, -0.0785076, -0.0556444, -0.046127, -0.0853211,
        0.0179145, 0.0146364, 0.0980953, -0.0171446, 0.0127488,
        -0.0276066, -0.100551, 0.0653825, 0.0628001, -0.0439177,
        -0.0557799, 0.0454116, 0.0641522, 0.0235941, -0.0234251

    },{
        -0.015268, 0.0759414, 0.0526145, 0.051622, -0.0150794,
        0.0117482, -0.0149604, -0.075942, -0.0288472, -0.0919302,
        -0.0724152, -0.0790988, 0.0913261, -0.09514, 0.0869852,
        -0.0819918, 0.0588992, -0.0572974, 0.0243003, 0.0444919,
        -0.0969266, 0.0124745, 0.0322372, -0.101824, -0.0773386

    },{
        -0.0894117, -0.0429569, 0.0976108, -0.0290748, 0.0142257,
        -0.0470751, -0.06198, -0.088995, -0.0517375, -0.0726662,
        0.0509336, -0.0706856, -0.0636227, 0.0916439, 0.0169953,
        -0.0269193, 0.098184, -0.0939982, 0.0724502, 0.050334,
        -0.054344, -0.0420543, -0.00130147, -0.0617576, 0.0250579

    },{
        0.141987, 0.0941327, 0.0659539, 0.0165422, 0.019147,
        0.0191279, -0.0105924, -0.143199, -0.166319, -0.0892609,
        0.0543268, 0.0291649, 0.139436, 0.129106, 0.0817452,
        0.0334944, 0.0523469, 0.197471, 0.123785, 0.183039,
        -0.11561, -0.121623, -0.152289, -0.187906, -0.0629288

    },{
        0.0328758, 0.0437409, -0.00359658, 0.0208529, -0.0397223,
        -0.0839232, -0.100527, 0.0551824, -0.0313278, -0.0604715,
        3.49134e-05, -0.0757044, -0.0438706, -0.0337533, 0.0721334,
        -0.0890487, -0.111947, -0.0744184, -0.0516187, -0.0808121,
        -0.0508611, -0.0913315, -0.0771975, 0.0595618, 0.056302

    },{
        -0.0390491, -0.0401527, 0.0222598, 0.0408445, 0.0185169,
        -0.0818477, -0.0301194, -0.0685908, 0.05215, 0.0441255,
        -0.0291299, 0.0302954, 0.0635134, 0.0457191, -0.0986579,
        0.0348923, -0.00379181, -0.136408, -0.0954011, -0.0854756,
        0.0281216, 0.0497899, 0.0499745, 0.0287711, -0.0134762

    },{
        0.0940387, 0.0888214, 0.0118345, -0.0619347, 0.0868173,
        -0.102775, 0.0295722, 0.0890618, -0.0229766, -0.0429251,
        -0.00292645, -0.0695715, 0.0217898, -0.0994119, 0.0103502,
        -0.0100265, 0.0890264, 0.0644099, 0.0874706, -0.0274952,
        -0.0219598, 0.0228126, 0.0967724, -0.0971671, -0.0681084

    },{
        -0.0303778, -0.0780572, -0.0880443, -0.0762295, 0.0403551,
        0.00118278, -0.101791, -0.0999502, -0.00845072, 0.0935779,
        0.096366, 0.0683322, -0.0346376, -0.101309, -0.00583158,
        -0.0676404, -0.0824311, -0.0350808, 0.000642531, -0.0770822,
        0.080568, 0.0646505, 0.00718119, -0.0324335, -0.045648

    },{
        0.0919354, -0.0303763, 0.0171322, 0.0827802, 0.0791354,
        -0.0540012, 0.0720127, -0.0994574, 0.0846837, 0.0972871,
        -0.00838074, -0.0146292, 0.00968154, -0.0321093, 0.0623763,
        0.0160989, -0.0447619, -0.0780161, -0.00203598, 0.094011,
        0.0207035, -0.0389354, -0.101202, 0.0945933, 0.0195276

    },{
        -0.0588257, -0.0138546, -0.0524948, 0.0642055, 0.0759957,
        -0.0385941, -0.0553006, 0.0820718, 0.0658223, 0.0162638,
        0.00916982, -0.0660081, -0.0644936, 0.0601465, 0.0185581,
        0.0234025, -0.0943911, -0.0931853, -0.101131, -0.016671,
        -0.0940623, 0.0374063, -0.0210115, 0.0874431, 0.0160647

    },{
        -0.165842, 0.193219, 0.186856, -0.00612536, -0.077877,
        0.0221587, 0.220376, -0.0976326, 0.0255891, -0.0418212,
        0.124354, -0.0553812, 0.0292881, 0.121518, 0.0547131,
        -0.0249992, 0.00859918, 0.0792609, 0.0505879, 0.0375415,
        0.0247463, -0.0200049, 0.0347023, 0.00572014, 0.11729

    },{
        0.115527, 0.0417917, 0.0806134, 0.0685182, -0.0792267,
        0.0127307, -0.0420102, 0.0822108, -0.0154373, -0.00874252,
        -0.00665478, 0.0341338, 0.000302123, -0.0145391, -0.0834154,
        0.024592, 0.00905002, -0.00955832, -0.0221545, 0.0378658,
        0.0218394, 0.0060131, 0.00641969, 0.122015, 0.0157238

    },{
        0.11984, 0.0293804, -0.02811, -0.0130133, -0.015632,
        -0.0749491, -0.124857, -0.0203048, 0.0208229, -0.0941856,
        -0.0288096, 0.146116, 0.0745436, -0.0113544, -0.00329212,
        -0.00447657, 0.031843, -0.111521, 0.0080346, 0.0161444,
        0.0304987, -0.018563, 0.0552503, 0.0642623, 0.0368005

    },{
        -0.0657775, 0.0151424, -0.0869943, 0.0487019, -0.0951984,
        0.0039714, -0.0117381, 0.0565858, -0.100411, 0.014384,
        -0.0904441, -0.00716297, 0.0651269, -0.0328612, 0.0284702,
        -0.0901981, 0.0569966, -0.0255008, 0.0429656, -0.0878132,
        -0.054686, 0.100857, -0.095168, -0.0665089, -0.0457023

    },{
        0.0651452, 0.0762647, 0.0783269, -0.0891716, 0.0393582,
        0.0334922, 0.0145169, -0.0653045, -0.0708208, 0.00465552,
        -0.00691853, 0.0843676, -0.0323425, -0.00519042, -0.0574373,
        0.0724906, 0.0193251, 0.0707687, -0.0392155, -0.0753519,
        0.0869634, 0.00841934, 0.0855701, -0.00687566, -0.0507363

    },{
        -0.0587652, -0.0812822, -0.0123606, -0.064138, -0.00411975,
        -8.68663e-05, -0.0348258, 0.04775, -0.102585, -0.0609562,
        0.00114138, -0.0526341, 0.0361693, 0.0734619, -0.0928615,
        -0.0175786, -0.0715293, 0.0243747, 0.0219554, -0.0556353,
        -0.0377629, -0.0831463, 0.0815764, 0.00331243, 0.060657

    },{
        -0.00477509, -0.0590125, -0.0725545, -0.0626243, 0.0254445,
        0.0376927, 0.00919341, -0.071814, 0.0321983, 0.00216435,
        -0.074252, 0.101953, 0.0525424, -0.0742214, -0.058062,
        -0.094357, 0.00404247, 0.0833617, 0.0595964, 0.0449809,
        -0.0997819, -0.0396212, -0.0366895, -0.0223641, 0.0779009

    },{
        -0.0397121, 0.0449378, -0.0762546, -0.0137162, -0.0946583,
        0.0627925, 0.0122993, 0.0617687, -0.0353702, 0.00796965,
        0.0375471, 0.0471147, 0.00249731, -0.0638111, -0.155401,
        0.0324283, 0.0439807, 0.032694, -0.0153081, -0.0687717,
        -0.00562611, 0.0636214, 0.0464344, -0.104903, -0.0399935,

    },{
        0.110855, 0.15759, 0.0570183, -0.0368169, -0.0349938,
        -0.102084, -0.0552672, -0.0752025, -0.0450108, -0.00387722,
        -0.00443507, 0.0959499, 0.0476947, -0.0368285, 0.0113259,
        0.0159564, 0.114973, -0.122316, -0.00134397, 0.0832115,
        -0.0576854, 0.021242, -0.178682, -0.0609627, 0.107107

    },{
        0.0452381, -0.0425964, -0.027854, 0.0885132, 0.0950076,
        0.0340378, -0.145528, 0.101468, 0.118488, -0.0840591,
        0.0678819, 0.0232197, 0.120581, -0.0133492, -0.0982921,
        0.0157183, 0.112615, -0.0865151, -0.0741456, -0.144718,
        0.00341762, -0.0128221, -0.016066, -0.167065, -0.169886

    },{
        0.0640198, 0.148219, 0.13201, 0.141366, 0.107777,
        -0.00411225, 0.0567409, 0.0520194, -0.0117748, 0.0255143,
        -0.0171042, -0.0289609, -0.0749661, -0.0876974, 0.000540166,
        -0.0419534, -0.115685, -0.097312, -0.134464, -0.147766,
        0.00982824, 0.0104834, 0.0693987, 0.0761693, 0.0278984

    },{
        -0.0625688, -0.0925544, 0.0793487, 0.00177899, -0.00714254,
        -0.0601696, 0.0469968, 0.0623764, -0.0411788, -0.0423361,
        -0.0022963, -0.0986799, -0.0619004, 0.0195174, -0.0859353,
        0.0718259, -0.0698352, -0.0248549, 0.000625946, 0.0521937,
        0.0600737, 0.00232738, 0.0843097, 0.00855455, -0.0585895

    },{
        0.0959727, 0.0497439, 0.0634954, -0.0505933, -0.0976945,
        0.0134128, 0.0437396, -0.0767829, -0.00731095, -0.02672,
        0.0934899, -0.0871387, -0.0581908, 0.00119617, -0.0486571,
        0.0406103, -0.0874272, -0.00898702, -0.014911, -0.0289788,
        -0.0816733, 0.0660118, 0.0279471, -0.0948769, 0.063287

    },{
        -0.023432, 0.0411103, -0.00866422, 0.0556097, 0.0492428,
        -0.0329103, 0.0855704, 0.072246, -0.0464985, -0.0148797,
        0.0663797, 0.0676835, 0.0326533, 0.0264242, -0.10209,
        -0.0744865, 0.0491638, -0.0880721, 0.0216193, -0.100617,
        0.0376048, -0.0905082, 0.0175386, -0.00865156, 0.015358

    },{
        -0.0561472, -0.0756634, -0.0766156, 0.0392877, 0.0232001,
        -0.019113, -0.112847, -0.153789, -0.105884, -0.00918165,
        -0.0129659, 0.0177826, -0.0341703, -0.0120447, -0.0303087,
        0.0677723, 0.0714666, -0.0117338, 0.049965, 0.0519563,
        0.0440898, 0.0894746, 0.104532, 0.0559271, -0.0620249

    },{
        -0.0289479, -0.025849, -0.202738, -0.231218, -0.105944,
        -0.0250921, -0.0482995, -0.203289, -0.133371, -0.0880525,
        -0.0938979, -0.117389, -0.0450401, 0.0725085, 0.0646013,
        0.031276, 0.049638, 0.0647495, 0.00580348, 0.0546462,
        0.0295435, 0.012826, -0.0180627, -0.020415, -0.0392632

    },{
        -0.0267764, 0.00331634, 0.0277856, 0.0537, 0.0474275,
        0.0728229, 0.139251, 0.133342, 0.17769, 0.144022,
        -0.00236893, -0.0403999, 0.0341061, 0.0417873, -0.0120865,
        -0.025754, -0.0722614, -0.029695, -0.0774869, -0.0665942,
        -0.0265957, 0.0806649, 0.0920477, 0.0286515, -0.0828932

    },{
        0.136855, 0.0204329, 0.11799, 0.23245, 0.170034,
        -0.125564, -0.131806, -0.0340653, 0.0189681, -0.045569,
        0.0254993, -0.058554, -0.0204209, -0.0973895, -0.0472328,
        0.11108, 0.0476936, 0.0433447, 0.0824499, -0.00684117,
        -0.0158003, 0.0394539, 0.0264658, 0.151591, 0.153334

    },{
        -0.0979816, -0.0406148, 0.0453045, -0.00327512, 0.0816812,
        0.0313452, -0.0987465, -0.0743779, 0.00460636, -0.0405674,
        -0.0363495, 0.080825, 0.0750949, 0.0808086, 0.0122237,
        0.00317866, 0.0397373, -0.0486538, -0.00984858, 0.0794512,
        0.0268029, -0.000421271, -0.0438473, -0.0347934, -0.102494

    },{
        0.0824494, 0.0160338, -0.0617315, -0.039388, 0.0667632,
        0.00360708, 0.0707809, 0.0869843, 0.00476193, -0.0153589,
        -0.0706189, -0.0527672, 0.0937882, -0.0268859, -0.0920281,
        0.0902128, 0.0807371, 0.0912588, 0.01553, 0.0719282,
        -0.0253081, 0.0877783, 0.0294341, -0.0568398, -0.0777486

    },{
        -0.0861721, -0.0194891, -0.0569631, -0.029995, -0.0387755,
        -0.0728711, -0.0679392, 0.0744648, 0.0223712, -0.0831379,
        -0.0180512, 0.0946539, 0.0660837, -0.0696003, -0.0657741,
        -0.012658, 0.0421706, -0.0709367, -0.0542379, 0.0792273,
        0.0155039, -0.00450157, -0.0315455, -0.0210662, -0.0925471

    },{
        0.0375369, 0.00892081, -0.0565668, 0.0134947, -0.0145441,
        -0.0522255, 0.0157267, -0.0100181, -0.104717, -0.100203,
        0.0140032, 0.0347141, 0.0524313, 0.0729629, -0.102204,
        0.0456921, 0.0665238, 0.0550252, 0.0344895, 0.0937594,
        0.00344457, 0.0256701, 0.064925, 0.134323, 0.0618669

    },{
        -0.114436, 0.12841, 0.0553524, -0.0775613, -0.0346548,
        -0.0769373, 0.0695015, 0.237598, 0.0668822, -0.0536908,
        0.0173794, -0.0797424, -0.0085196, 0.129178, 0.110681,
        -0.0530745, -0.0884897, -0.167512, -0.0941917, -0.0613882,
        0.0302276, 0.0298902, -0.000168225, -0.0906103, -0.0451433

    },{
        -0.117371, -0.0288779, 0.259992, 0.132125, 0.0816978,
        -0.0607286, -0.142491, 0.0390101, 0.0729472, 0.118314,
        0.0534641, 0.0243322, -0.0784895, -0.0306388, -0.0559907,
        -0.0247539, 0.050142, 0.0118723, -0.0634258, -0.0334608,
        0.0930559, 0.0495972, -0.060353, -0.116085, 0.0165468

    },{
        -0.0492074, -0.0106074, -0.103347, -0.142563, -0.0340673,
        -0.112824, -0.0505597, 0.0326987, -0.100953, -0.0616729,
        -0.132709, -0.133399, -0.0398751, -0.00149332, -0.0461504,
        -0.0446314, -0.0465397, -0.110008, -0.107632, -0.132997,
        -0.0846614, 0.0220488, 0.0274359, 0.0507195, 0.00479815

    },{
        -0.0498048, -0.132923, 0.0655298, 0.068909, 0.05053,
        0.0547483, 0.0350735, -0.074457, 0.0502345, 0.0512034,
        -0.0648089, 0.0306288, -0.010168, -0.130174, -0.110004,
        -0.0521514, -0.0493077, -0.0126864, -0.040509, 0.0380726,
        0.00519442, 0.00659852, -0.0473599, -0.0190054, -0.00250445

    },{
        0.016398, -0.0525865, -0.0471848, -0.0161337, 0.0126443,
        0.0638401, 0.0358732, 0.0100526, -0.0308264, -0.05274,
        0.0743301, -0.102196, -0.0637046, -0.0528666, 0.0516636,
        -0.0522505, -0.0439506, 0.0241822, 0.0571948, -0.0497305,
        -0.0150952, 0.00507107, 0.0642761, -0.0250139, -0.0305956

    },{
        -0.0969077, -0.0598075, 0.071777, 0.0558339, -0.0104517,
        -0.0399734, 0.0995336, 0.0487233, -0.0924463, 0.0510688,
        -0.0703783, -0.0581983, -0.0663039, -0.05972, 0.00862575,
        -0.0628877, -0.0474817, -0.0746755, -0.00140621, -0.0256766,
        0.0488691, -0.0988842, -0.0658524, -0.0812761, 0.0878808

    },{
        0.0364652, 0.0334361, 0.0626213, 0.0397054, -0.0876245,
        -0.0693345, -0.0560456, 0.0388027, -0.061075, 0.0212662,
        0.0871781, 0.0323703, 0.0441422, 0.00369617, 0.0112561,
        -0.0899317, -0.0408349, -0.00546525, 0.0699487, -0.00318692,
        -0.0135141, 0.0246282, 0.0884571, -0.0834066, 0.0430428

    },{
        -0.00911933, 0.0817271, 0.049404, -0.0295344, -0.102988,
        0.177674, 0.116598, 0.00533064, -0.0823768, -0.111947,
        0.14867, 0.0150677, -0.042498, -0.0967825, -0.0296797,
        0.0151886, -0.0178745, -0.0480647, -0.081303, -0.0156193,
        -0.0434742, 0.017461, -0.00875034, -0.00823678, 0.0148168

    },{
        -0.0453488, 0.0596632, 0.0374882, 0.0453572, -0.0496408,
        0.108178, 0.0856518, -0.00305771, 0.0244959, 0.00787769,
        -0.0700724, -0.0541097, 0.0263859, -0.0108996, 0.00418898,
        -0.0921996, -0.0688955, 0.0187643, 0.00693754, -0.00119199,
        -0.0408999, 0.0219001, 0.0309834, -0.00625081, -0.0986007

    },{
        -0.0349234, -0.0727391, -0.113751, -0.0940762, -0.05339,
        -0.105395, -0.10097, 0.0445292, 0.0552, 0.0144074,
        0.00341439, -0.0199473, -0.0235458, -0.0297252, 0.0129523,
        -0.056183, -0.0596295, -0.0589164, 0.00231631, -0.0959999,
        0.0237846, -0.00880116, -0.0193373, -0.0768515, -0.0196938

    },{
        -0.0687452, 0.0288725, 0.0530285, 0.14565, 0.105203,
        -0.0377081, -0.0171748, 0.175783, 0.176847, 0.0415473,
        0.0320509, 0.103421, 0.0585819, 0.0391062, -0.0837263,
        0.139246, 0.07999, -0.0803306, -0.0778399, -0.0728585,
        -0.0603573, -0.0756598, -0.0251082, -0.0408365, -0.0799109

    },{
        -0.0498711, 0.0106718, -0.0105876, -0.0591967, 0.00994153,
        0.0541443, 0.072261, 0.0465655, 0.0659675, -0.0675667,
        -0.0498703, 0.0756123, 0.100698, -0.100316, 0.0894183,
        0.0752511, -0.0343269, 0.0123046, 0.0427316, -0.0202166,
        0.0311532, 0.0540505, -0.0608316, 0.045315, 0.0510684

    },{
        0.101799, 0.099792, -0.0463565, -0.0176297, -0.103654,
        -0.0853207, 0.0906393, -0.0498632, 0.0747623, -0.0566404,
        0.0478054, 0.0692357, 0.00348617, 0.00560129, 0.0432318,
        -0.0976159, 0.0586007, 0.0544884, -0.0261376, -0.0160067,
        0.0564685, -0.0674705, 0.0523537, 0.0420374, 0.0236491

    },{
        0.0203875, -0.0204995, -0.046879, 0.0412163, -0.0915286,
        -0.103796, 0.0427989, 0.057424, -0.0296223, 0.0828087,
        0.0466327, -0.0544552, 0.0056348, -0.0792191, -0.0846138,
        -0.0584308, -0.0299858, -0.0413406, 0.0856428, 0.080012,
        -0.0671244, 0.00901718, -0.0642498, -0.0445545, -0.0623949

    },{
        -0.171373, -0.173581, -0.12396, 0.037777, 0.0211472,
        0.0124623, -0.118117, -0.134528, 0.0163013, -0.0297153,
        0.0181733, -0.179742, -0.116714, 0.0661366, -0.0316567,
        0.0318165, -0.0606169, -0.114937, 0.065607, -0.0818143,
        -0.00315314, -0.0212585, -0.0352766, 0.0873014, -0.0237296

    },{
        -0.0319551, -0.0086655, -0.0303267, 0.0116531, -0.0298411,
        -0.0129533, -0.049645, 0.018677, -0.0750847, -0.0494781,
        -0.0826677, -0.000892355, 0.0907728, -0.137611, -0.11078,
        -0.0593657, -0.11268, 0.0980022, -0.121984, -0.00969211,
        0.0307863, -0.0128533, 0.0696469, -0.048028, 0.0306695

    },{
        -0.0820224, -0.0730698, 0.0189101, 0.056053, 0.0707855,
        0.0828917, 0.00416741, -0.0717296, 0.083602, 0.0858242,
        0.0455722, -0.0404629, -0.125421, 0.0112353, 0.0426162,
        0.120862, -0.0768874, -0.0679289, 0.0766131, 0.023097,
        0.103016, 0.0889113, -0.0367809, 0.0824906, 0.0510128

    },{
        0.0930684, -0.0350895, -0.217978, -0.227271, -0.0084078,
        0.206214, 0.065239, -0.0401341, -0.187234, -0.0736775,
        0.0758705, 0.131874, 0.17878, -0.176532, -0.108076,
        0.0637123, -0.0292398, 0.14422, -0.0537243, -0.0350747,
        0.0181526, 0.0555738, 0.11986, 0.00558927, -0.00922515

    },{
        -0.0473984, -0.0710126, -0.0753366, 0.0338142, -0.053341,
        0.0956171, 0.0975728, -0.0297743, -0.0476764, -0.100485,
        0.0994816, 0.0420594, 0.0153868, 0.00362341, -0.0366638,
        -0.0620461, 0.0726526, 0.0579408, 0.107031, 0.133924,
        0.0115973, 0.116905, 0.104229, 0.0532143, -0.0103026

    },{
        -0.0588869, -0.0828346, 0.0129163, -0.0743001, -0.0764228,
        -0.101503, 0.0436205, 0.0451096, -0.0724414, 0.0134733,
        -0.103915, 0.0615354, -0.101521, 0.00147894, -0.0589891,
        0.0609594, 0.0845695, 0.0408938, -0.0912296, 0.0580406,
        -0.0433873, -0.0195351, -0.0741516, 0.0308683, 0.0316567

    },{
        -0.0668888, -0.0744272, -0.0372206, -0.0394876, -0.0683907,
        0.0950008, -0.0190851, 0.0872139, -0.0540159, 0.0728091,
        -0.0194434, 0.0052791, 0.0992707, -0.0842312, -0.0375341,
        -0.0738803, 0.100789, -0.0177343, 0.0284734, 0.00519563,
        -0.0260926, -0.045531, 0.0746761, -0.0496709, 0.0249809

    },{
        -0.0351701, -0.0676611, -0.029664, 0.0488514, 0.0663308,
        -0.0276518, -0.0814799, -0.0599385, 0.0022305, -0.0236415,
        -0.0699685, -0.0435471, -0.098355, -0.0849839, -0.0647736,
        0.05454, 0.0286949, -0.0346048, -0.0595733, 0.00219245,
        0.0698187, -0.0044958, -0.089403, 0.00838672, -0.0380339

    },{
        0.0602847, 0.0909507, -0.0194271, -1.23447e-05, -0.130311,
        0.0375333, 0.126857, 0.0727675, 0.0675837, 0.0234159,
        0.0886523, 0.0719096, 0.038457, 0.0878748, 0.10101,
        0.063459, 0.0312234, -0.029915, -0.0491661, -0.0594582,
        -0.191947, -0.133637, -0.0803608, -0.0882279, -0.0260271

    },{
        0.0296694, -0.0397693, -0.025052, 0.0638335, 0.105709,
        -0.0611275, 0.0315245, 0.0428052, 0.116663, 0.0692846,
        0.0437207, 0.0349982, -0.0297119, 0.041923, -0.00682586,
        -0.0321971, -0.0747288, -0.173272, -0.252896, -0.130242,
        -0.121946, -0.149387, -0.099548, -0.0764753, -0.0341594

    },{
        0.0174073, 0.0191604, 0.00933018, 0.00167642, -0.102311,
        -0.0164673, 0.0576733, -0.0725898, 0.041055, -0.0856225,
        0.0601721, -0.00186018, -0.0387961, -0.0587361, -0.0567688,
        -0.0192862, -0.0923059, 0.00541915, 0.0685447, 0.0319341,
        0.0930063, 0.0892825, 0.0462585, 0.110308, 0.0528928

    },{
        0.033004, -0.0727298, -0.0605925, -0.0960369, -0.0931606,
        -0.0687173, -0.03248, -0.0830661, 0.0843532, 0.0581806,
        0.0741658, 0.0691806, 0.0410593, 0.142121, 0.132502,
        0.0417115, -0.0304057, -0.00775236, -0.0706434, -0.132647,
        -0.0152537, -0.05124, 0.0136744, 0.042124, -0.0121648

    },{
        0.0751286, 0.0754296, 0.0358457, 0.0655369, 0.0278818,
        0.0462123, -0.0783869, -0.0918438, -0.00614399, -0.102216,
        0.101642, 0.100853, 0.0936466, 0.0226251, 0.0303074,
        -0.1042, -0.0727523, -0.00605696, 0.0290626, 0.00814378,
        0.0137164, 0.0128106, -0.00654549, 0.0881759, -0.0150325

    },{
        0.0315221, 0.0207368, -0.0911744, 0.0731063, -0.0407287,
        0.0524575, -0.00173011, 0.0165779, -0.0184772, 0.0887178,
        -0.0380467, -0.0909228, -0.00244774, 0.102639, -0.0913457,
        -0.0933764, -0.0807797, -0.0627733, 0.093759, -0.0161364,
        0.0526172, -0.0819887, -0.0832635, 0.0258339, 0.0177429

    },{
        -0.0419583, 0.0498336, -0.0473193, 0.00387328, -0.0537254,
        0.0540199, 0.032655, -0.0610136, -0.00683622, 0.00239289,
        -0.0527841, -0.0541704, -0.0320849, 0.00933452, 0.077088,
        0.10213, 0.00842013, -0.0580517, 0.0305656, 0.026959,
        0.00992047, 0.00734308, -0.0335139, -0.0663499, -0.0769087

    },{
        0.0188776, -0.0134667, -0.116463, -0.11761, -0.11625,
        -0.107693, -0.191098, -0.0861947, -0.000527066, -0.0117069,
        -0.0501078, -0.0259499, 0.0731729, 0.0834657, -0.0289791,
        0.0484014, 0.0422167, 0.0407216, -0.0272434, -0.0727978,
        0.147985, 0.0463054, 0.0182652, -0.0474664, -0.0831131

    },{
        -0.0658973, 0.049909, 0.0649082, -0.0372967, -0.0379852,
        0.0560535, 0.0897055, 0.00710815, 0.0157839, -0.00550224,
        -0.0283289, 0.11166, 0.115932, 0.101241, -0.0461819,
        0.0597428, 0.102132, 0.103242, -0.0324237, 0.0156135,
        -0.0428015, -0.110601, -0.0598642, -0.0492878, -0.0370592

    },{
        -0.0227469, 0.0431263, 0.00685377, 0.119947, 0.187858,
        0.0339415, 0.108857, 0.0572692, 0.00272897, -0.0118624,
        0.00349749, 0.0189711, -0.0163578, -0.0632779, -0.148122,
        -0.121279, -0.0660491, -0.0706282, -0.0908606, -0.220038,
        -0.0571312, -0.0234266, -0.100253, -0.0818122, -0.0701409

    },{
        -0.0400686, -0.0241585, 0.0310352, 0.0279829, 0.0545034,
        -0.0042277, -0.057996, -0.0975255, -0.0313154, -0.0597905,
        -0.119798, -0.0566738, -0.0211813, -0.0174248, -0.10968,
        -0.0104053, -0.0673477, -0.084788, -0.092276, -0.0965509,
        -0.0168529, -0.0458959, -0.0790802, -0.064391, -0.0151942

    },{
        -0.0735973, -1.41263e-05, -0.103906, 0.0578839, 0.0556113,
        -0.0744481, 0.10018, -0.0870661, 0.0681061, -0.0210525,
        -0.0656478, 0.0620334, 0.0548356, -0.0644068, -0.0649226,
        0.0559368, -0.0333756, -0.0438053, 0.0226847, -0.0591394,
        0.039647, -0.100955, -0.0233757, -0.0211694, -0.0481713

    },{
        -0.0248413, 0.0928027, 0.0332861, -0.0408497, -0.0896322,
        0.0176576, -0.0725687, -0.0157599, -0.100984, -0.0328887,
        -0.0806753, -0.0173279, 0.0317077, 0.0544875, -0.0203343,
        0.0757341, -0.0373864, 0.00329036, 0.0120974, -0.0435859,
        0.103081, -0.0595158, 0.0698719, 0.0957023, 0.0416999

    },{
        0.133737, 0.0862613, 0.00317197, -0.0544974, 0.00619638,
        0.01702, 0.0906338, 0.00380201, -0.0693903, -0.0971216,
        0.0860643, 0.0310546, -0.0755783, -0.122595, -0.0344073,
        -0.0523135, -0.149771, -0.0610468, -0.139481, -0.0633522,
        -0.0551243, -0.0751844, -0.179563, -0.12837, -0.100412

    },{
        -0.0723462, -0.0419182, 0.0564812, 0.116072, 0.0818058,
        -0.0903997, -0.108621, 0.00332139, 0.0460011, 0.0655835,
        -0.144556, -0.0103049, -0.0651648, -0.0719576, 0.0347129,
        -0.201526, -0.139522, -0.127913, -0.0944144, -0.0906199,
        -0.0200859, -0.123348, -0.0370789, -0.0442745, -0.108979

    },{
        -0.130216, -0.0197525, -0.103674, 0.0523187, 0.0424113,
        -0.0582727, -0.0926533, -0.0802746, -0.0421021, -0.0704998,
        -0.00401806, -0.10919, -0.126869, -0.109395, -0.203402,
        0.12211, 0.0965011, -0.0583853, -0.0438483, -0.0710038,
        0.195132, 0.0457493, 0.0588195, 0.0407216, -0.074383

    },{
        -0.0363871, -0.00447445, 0.0814323, -0.0874538, 0.05258,
        -0.0163267, 0.0548621, -0.0730036, -0.00637563, 0.0118986,
        -0.0604193, 0.0343421, -0.0957827, 0.0938718, -0.0372187,
        -0.0340553, -0.096694, 0.00175684, 0.0404951, 0.078358,
        0.035585, -0.0519726, -0.014524, 0.0309455, 0.0559393

    },{
        -0.0628999, -0.0377342, -0.0678682, -0.110917, -0.00941583,
        -0.0791946, -0.112148, -0.091097, -0.00913955, -0.0775886,
        -0.00192895, -0.0836379, 0.0285999, 0.0134373, -0.000823651,
        -0.0520092, 0.0126314, 0.0031145, -0.061127, -0.0286798,
        -0.0211968, 0.0343, 0.0352326, -0.0429745, 0.01423

    },{
        -0.109308, -0.0181201, 0.0712306, -0.0104293, 0.0362815,
        0.00367922, -0.0154372, 0.00187488, 0.0541901, -0.0588294,
        -0.0672335, -0.101394, -0.069016, -0.0729587, -0.100757,
        -0.0270606, -0.0078071, -0.0237147, 0.00898986, -0.0361702,
        0.0120959, 0.0505018, 0.0209232, -0.0285605, -0.0528083

    },{
        0.0970479, 0.0570039, 0.00559467, 0.0713208, -0.0680996,
        -0.0954034, -0.0279218, -0.00283244, -0.0302975, -0.0544353,
        -0.0204136, 0.0945187, 0.0957644, 0.0927261, 0.099661,
        0.0238, 0.0923352, 0.0989083, 0.0429529, -0.0324074,
        -0.0984676, 0.0831083, -0.0191084, -0.0136627, 0.0900561

    },{
        -0.0551865, 0.0683255, 0.092086, 0.0333727, 0.0384819,
        -0.0502269, -0.090887, 0.00106454, 0.0773792, 0.0370821,
        0.042067, 0.0229069, 0.0219185, -0.000678338, 0.0485415,
        -0.101923, -0.0515049, -0.00609633, 0.0209915, -0.048872,
        0.0657218, 0.0405586, -0.0931426, 0.00886773, -0.0771838

    },{
        0.0189483, -0.010869, -0.0255793, 0.0658143, 0.0325889,
        0.0114203, 0.0238702, -0.0953809, 0.0524923, 0.00592681,
        0.0659914, -0.0120141, -0.0793064, 0.00970071, -0.0239728,
        -0.0366787, 0.00179064, 0.0229017, -0.0953659, -0.0774323,
        0.0222755, 0.0604918, -0.030085, -0.0236488, -0.0689766

    },{
        -0.1233, -0.106198, -0.0258442, 0.00545144, -0.0249169,
        -0.1485, -0.102091, 0.00167137, 0.0736936, -0.15416,
        -0.221791, -0.0513841, 0.0874398, -0.00189966, -0.125124,
        -0.0507378, -0.0843284, 0.0306468, -0.0507095, -0.0507734,
        -0.00860154, 0.00550898, -0.0636661, -0.0449575, -0.119739

    },{
        -0.0248672, -0.0706377, -0.00591279, 0.0720415, 0.072536,
        0.0213455, 0.0760827, 0.096836, -0.0589085, -0.0322366,
        0.0261994, 0.0199754, -0.0184975, 0.0206774, 0.0191003,
        0.0241698, 0.0101049, -0.0920849, -0.0422271, 0.0522895,
        0.0611997, 0.0936279, 0.00308393, 0.00724421, -0.049335

    },{
        -0.0448671, -0.0207913, 0.045468, 0.0627028, -0.0520485,
        -0.0208531, -0.0767763, 0.013952, 0.121916, -0.0393985,
        0.00535826, -0.0528628, 0.0835176, 0.17697, -0.0239817,
        -0.035631, -0.0259044, 0.103641, 0.131346, -0.0389989,
        0.015817, 0.0154105, 0.0115513, 0.0376926, -0.03115

    },{
        0.0210558, -0.0793667, -0.133435, -0.164857, 0.0287797,
        0.115513, 0.0231803, -0.209806, -0.143127, 0.00344657,
        0.15577, 0.018778, -0.138256, -0.153707, 0.0805509,
        0.081455, 0.013026, -0.126086, 0.0156226, 0.116201,
        0.0159875, -0.0678949, -0.0983432, -0.0480706, -0.0214707

    },{
        0.0487382, -0.0525856, -0.0163467, -0.0282365, -0.0190169,
        0.0168747, 0.0152792, 0.0359661, -0.0857503, 0.00600033,
        -0.0850254, -0.0262068, -0.0431769, 0.050199, 0.0241787,
        -0.20711, -0.0522097, 0.0783685, 0.035106, -0.0399672,
        -0.13314, -0.0145419, 0.0849568, 0.0173631, 0.0310839

    },{
        -0.00955308, 0.0639554, -0.0775202, 0.052566, -0.0399419,
        -0.0877224, -0.00609917, -0.00382353, 0.0403472, -0.0113485,
        0.0290933, 0.0360284, -0.042699, -0.0107084, -0.031679,
        0.0426797, -0.0770717, 0.0379445, 0.00309517, 0.041183,
        0.0225057, 0.0247749, -0.0614726, -0.0729077, 0.102894

    },{
        -0.0205065, -0.0181797, 0.0734039, 0.0362485, 0.0479936,
        -0.0135751, -0.0277355, 0.0625526, -0.0870257, 0.0597697,
        -0.0577996, 0.0647871, -0.0495515, -0.0620872, 0.0852357,
        0.0266387, 0.0392272, -0.146367, -0.0674667, 0.0820773,
        0.0545739, -0.0899421, -0.179695, -0.116332, -0.0474668

    },{
        0.0806692, -0.057985, 0.0307604, -0.0824535, 0.0387103,
        0.0624939, -0.0956168, -0.0345357, 0.00975678, -0.00987322,
        -0.00435991, -0.120916, -0.115394, -0.0664571, -0.107087,
        -0.0810314, -0.142721, -0.0269703, 0.0204842, -0.0974715,
        -0.121513, -0.104885, -0.0354398, 0.0360874, 0.0706022

    },{
        0.0469836, 0.0628561, -0.03543, 0.0097386, 0.0717536,
        -0.0665096, -0.0149479, 0.0419557, 0.0761804, 0.059167,
        0.0328099, -0.0124836, 0.0169278, 0.0680245, -0.062516,
        -0.022724, 0.00617209, 0.089513, 0.0823942, -0.0938152,
        -0.0407354, -0.00202844, 0.077488, 0.0779532, 0.0853841

    },{
        0.061782, -0.0495432, -0.0273049, -0.0226809, -0.0133876,
        0.0733275, -0.0423247, -0.113862, 0.0386143, 0.0656059,
        0.0195531, -0.203994, -0.0227268, 0.0866481, -0.0192814,
        -0.128703, -0.264283, -0.0160522, 0.0172632, -0.0556129,
        -0.141313, 0.0439737, 0.0671458, 0.126954, 0.0152315

    },{
        0.0746188, 0.0147284, 0.0202055, -0.00955749, 0.144387,
        0.0497311, -0.0285379, 0.0144212, -0.0227947, 0.119301,
        -0.0104241, -0.0330943, 0.0154852, 0.106672, 0.206662,
        0.0519234, -0.048853, 0.0050589, 0.118104, 0.113602,
        -0.0208301, -0.00259781, -0.0612397, -0.0332046, -0.00862016

    },{
        0.0203508, -0.0534656, 0.0225976, -0.0123241, 0.198915,
        0.00533009, -0.00977958, 0.00872641, 0.0472443, 0.178644,
        0.0679976, 0.0645221, 0.046683, -0.00732541, 0.002275,
        0.00797212, -0.0905094, -0.037827, -0.0616072, -0.0105788,
        -0.0208026, -0.0382411, -0.140362, -0.0685466, -0.0191088

    },{
        -0.0214225, -0.057329, 0.005637, 0.0130383, 0.255731,
        -0.0416369, -0.0726848, 0.0231385, 0.0850025, 0.186543,
        -0.0549961, -0.0175453, 0.0536778, 0.155558, 0.0827994,
        -0.0584682, 0.0862477, -0.00163542, -0.00756166, 0.0114441,
        0.00218131, 0.00702536, 0.0537309, -0.0128724, 0.0166865

    },{
        -0.0540599, -0.0169776, -0.0588349, -0.0946994, -0.117291,
        -0.0382644, -0.0196751, -0.0361457, -0.0507968, -0.0465132,
        0.0867373, 0.0777889, -0.0401457, 0.0828784, 0.0885485,
        0.0595623, -0.0447863, -0.00186486, -0.0423601, 0.0692692,
        0.0920644, 0.020174, 0.00421797, -0.00222252, -0.00862967

    },{
        -0.01451, -0.0500017, 0.0586927, 0.129282, 0.125968,
        0.0299987, -0.0410502, -0.0782831, -0.00984283, 0.0313245,
        0.020352, -0.0115634, -0.0352572, 0.0432561, 0.0571556,
        -0.0979169, -0.00408499, -0.0486333, -0.0357118, -0.0586021,
        -0.145238, -0.119175, 0.0274723, 0.0301356, 0.00739998

    },{
        0.111313, 0.018769, -0.0268077, -0.0521445, -0.0536616,
        0.0877788, 0.0596833, 0.0388648, 0.0496628, 0.0329713,
        0.0191566, -0.078938, -0.00707713, 0.0741305, 0.102342,
        -0.0300766, -0.0292099, 0.0162101, 0.0555668, -0.0224956,
        0.00934623, -0.00480079, -0.00342488, -0.0295378, -0.0132902
    }
};

float_t c3_bias[16] = {
    -0.0543993, -0.0266871, 0.00484535, -0.0221228, -0.0804337, -0.0359641, -0.0459844, -0.0314057, -0.0360098, -0.0246673, -0.0388929, -0.0679664, -0.0407139, -0.0487858, -0.0287667, 0.00955012
};


float_t c5_kernels[1920][25] = {
    {
    -0.0706925, -0.0680746, -0.0372739, -0.0145169, -0.0359112, 
    -0.0133979, -0.0253177, -0.0459833, -0.014655, 0.00932152, 
    0.0424364, -0.00570677, 0.0719448, -0.0144122, 0.00846017, 
    0.0531981, 0.000100306, 0.0680943, 0.0652283, 0.0672695, 
    0.0125421, -0.00830866, 0.0308763, 0.0239083, -0.0138907
    },{
    -0.0989843, -0.0821997, -0.051387, 0.0284106, 0.0262421, 
    0.0248887, -0.0251314, 0.0713133, 0.0570354, 0.0137603, 
    -0.069392, -0.050632, -0.0464799, -0.0613921, -0.0769101, 
    0.0474362, 0.045489, 0.0628975, -0.0168823, 0.00466532, 
    0.0308423, 0.0780171, -0.00703372, -0.048558, -0.0236474
    },{
    0.02896, -0.0294209, -0.00814215, 0.0216176, 0.0365914, 
    -0.000865631, 0.0159737, -0.00337971, 0.00723752, -0.0100355, 
    0.00327198, 0.045113, 0.029012, 0.0546953, -0.0004943, 
    -0.0200554, -0.0255426, 0.0264017, 0.0137181, -0.0138576, 
    0.0144077, -0.0305359, -0.0299465, 0.0157507, -0.0296638
    },{
    0.0566964, -0.0475569, -0.0474737, 0.0165566, -0.0159144, 
    0.0302612, -0.0153268, -0.0408308, 0.0435562, -0.00697375, 
    -0.00436199, 0.00106348, -0.0157035, -0.0260797, -0.0222696, 
    0.0222646, -0.0335867, 0.0432675, 0.02055, 0.0239418, 
    0.0238521, -0.0284929, -0.00105484, -0.0158529, 0.0210458
    },{
    -0.0928222, -0.0616988, 0.00222122, -0.0265225, -0.0427566, 
    0.0195182, 0.0134862, 0.00680809, 0.00413397, 0.0451279, 
    -0.084963, -0.0503649, -0.107525, -0.0718983, -0.0508463, 
    0.0154703, -0.00976953, 0.0134007, 0.0620628, 0.00505951, 
    0.006353, -0.0330437, 0.0401435, -0.0188068, -0.0279177
    },{
    -0.0171928, -0.0739848, -0.0306397, -0.0253591, -0.0288767, 
    -0.00147587, 0.0111324, 0.0447806, -0.0299641, -0.00960074, 
    -0.0685241, -0.0424114, -0.0310066, -0.0304611, -0.00496162, 
    0.0837753, 0.0820754, 0.0347766, 0.0554632, 0.0337001, 
    0.0302243, 0.00593186, 0.00242952, 0.00683146, -0.0269299
    },{
    -0.0207714, -0.0309934, 0.037828, -0.0260294, -0.0369643, 
    -0.0858445, -0.105123, 0.0677162, 0.0400233, 0.00467122, 
    -0.0320173, -0.0142833, 0.0254817, 0.0209086, 0.00772261, 
    -0.00154769, 0.0360223, 0.0876861, 0.00157544, -0.0095003, 
    0.0381493, 0.0608806, 0.0746547, -0.0156981, -0.0288182
    },{
    0.0131296, -0.0358866, 0.0350324, 0.0627623, -0.0271528, 
    0.0148656, 0.0462313, -0.000989679, -0.040914, -0.0137801, 
    0.0149756, 0.0203839, 0.0330645, 0.0061101, -0.0213834, 
    0.0272649, 0.0454406, -0.060386, -0.0608205, -0.034097, 
    0.0465607, -0.0320763, -0.00542452, -0.0109017, 0.0152769
    },{
    0.0310089, -0.0458902, -0.0671794, -0.0140702, 0.021415, 
    0.0428219, 0.0476429, 0.0191856, 0.024848, -0.0342898, 
    0.0371788, 0.00236558, -0.0669578, 0.0867176, -0.0168044, 
    0.0217464, 0.0383952, 0.0271284, 0.0280843, 0.0447196, 
    -0.0221227, -0.0553055, 0.00596228, -0.0471319, -0.0298136
    },{
    -0.000409108, -0.0709787, 0.00708982, 0.0470877, 0.0647505, 
    -0.0366357, -0.0860948, -0.0754392, -0.073393, 0.0396315, 
    0.0368328, 0.0291354, 0.0124624, -0.0167221, -0.0657051, 
    0.0831347, 0.0627779, 0.0720854, 0.0286648, 0.0349674, 
    0.0512407, 0.128661, 0.0323835, 0.0542874, 0.0630751
    },{
    -0.027257, -0.0368814, 0.0133074, -0.00169605, 0.0139038, 
    -0.0546047, -0.0764496, -0.0770382, 0.0629235, 0.0326944, 
    0.0121938, 0.0242059, 0.0180147, -0.0352405, -0.0297012, 
    -0.0133088, -0.0746489, 0.037521, 0.0222023, 0.00454618, 
    -0.00865759, 0.0232207, 0.0247874, 0.00875502, 0.0465575
    },{
    0.00904253, 0.0387379, 0.0213034, 0.0167071, 0.00184072, 
    -0.0530771, -0.0437315, -0.0626003, -0.0287377, 0.0330892, 
    -0.0204319, -0.072177, 0.0128801, -0.0073467, -0.0143328, 
    -0.0345966, 0.046648, -0.00782663, -0.0492658, -0.0545358, 
    0.0177499, 0.0103925, 0.013636, 0.0233833, 0.0552352
    },{
    0.0242693, -0.0413394, -0.0553607, -0.0464384, -0.0359156, 
    0.00928849, -0.0134839, 0.0147385, 0.0406952, 0.0403217, 
    -0.0635991, -0.0497398, -0.0304917, -0.0450258, 0.04583, 
    0.00497399, 0.0212233, -0.0464726, -0.00194691, 0.0341971, 
    -0.00183887, 0.0280553, -0.025999, -0.0379972, -0.0286932
    },{
    0.0679794, -0.0204664, -0.0641704, 0.00444951, 0.0122012, 
    0.0285001, 0.00875478, 0.00668814, 0.011314, 0.0319826, 
    0.0250413, 0.0751697, -0.0143341, -0.0162194, 0.0510525, 
    0.0567222, 0.00234327, -0.00444401, 0.0303618, 0.0121315, 
    0.0271819, -0.0203237, 0.0103266, -0.0418047, -0.0124444
    },{
    -0.035477, 0.00219709, -4.14553e-05, 0.0208696, -0.0504037, 
    -0.0299319, -0.0135891, 0.00694141, -0.0410167, 0.00541303, 
    0.093225, 0.0493183, 0.00876124, -0.0702982, -0.0146038, 
    0.0146265, 0.00699138, -0.0678045, -0.0418667, -0.0313632, 
    0.00722102, -0.00855036, -0.0524874, -0.0809726, 0.0448565
    },{
    0.01858, 0.00126006, 0.02671, 0.00983599, -0.00687215, 
    -0.00790645, -0.0303055, -0.0541927, 0.014352, -0.0434774, 
    0.0624617, 0.00731143, -0.0356326, -0.0115225, -0.0254331, 
    0.0350858, -0.00603268, -0.00812575, 0.00777852, -0.016386, 
    0.0249996, -0.00700013, 0.0267562, 0.0497992, 0.0227955
    },{
    -0.0639133, -0.0396216, 0.0238832, -0.000486697, 0.00859123, 
    0.0323414, -0.00501439, -0.0929441, -0.0180872, 0.0146624, 
    -0.0346125, -0.0417701, -0.0537692, -0.0696702, -0.0172026, 
    -0.0507461, 0.0566595, 0.0194125, 0.0245284, 0.0273107, 
    -0.0420249, 0.0710402, 0.0754528, 0.00342191, 0.0324445
    },{
    -0.0431351, -0.0646665, -0.0310972, -0.0228502, -0.0121563, 
    -0.00918393, -0.0218717, -0.0416558, -0.00111881, -0.0507606, 
    -0.0463388, -0.0864965, -0.0235642, -0.0258157, -0.0668302, 
    -0.0141918, 0.00786196, -0.0126559, -0.03198, -0.0134441, 
    0.0333849, -0.00226958, -0.00783718, -0.00378807, -0.0130403
    },{
    -0.040301, -0.0326343, 0.0271604, -2.42055e-05, 0.0447591, 
    0.0492671, -0.0337824, 0.0396388, -0.033728, 0.0495081, 
    0.0105729, -0.0415015, -0.0073208, -0.0291112, 0.029126, 
    -0.0132276, -0.0188167, 0.0180771, -0.0152204, 0.0560986, 
    -0.0222293, 0.0318636, 0.0210493, 0.0258867, 0.0733185
    },{
    -0.00802328, -0.0256697, -0.00112743, 0.0441709, -0.0625604, 
    -0.0200163, -0.0179087, 0.00450102, 0.0711743, -0.0530553, 
    0.00838905, 0.013507, 0.0490693, 0.0307613, 0.0132373, 
    0.0018581, -0.00844848, 0.0161204, 0.0262329, 0.0533313, 
    0.00668372, -0.000734877, 0.0225587, 0.0178853, 0.0344736
    },{
    -0.0291163, -0.0153569, -0.0074198, 0.0158514, -0.0159426, 
    -0.0294608, -0.0262941, -0.0223361, -0.0630075, -0.0695828, 
    -0.0126484, -0.0904657, -0.0285901, -0.0304809, -0.0365944, 
    -0.0543922, -0.0492054, -0.010294, -0.00263884, -0.00651679, 
    -0.0751464, -0.0612516, -0.0823092, -0.059562, -0.0352969
    },{
    -0.00726321, -0.0581566, -0.0795101, -0.0177385, -0.0144163, 
    -0.0642648, 0.0198137, 0.0158584, 0.0208016, -0.0778323, 
    -0.0547084, -0.0648189, -0.00132046, 0.000630084, 0.00990602, 
    0.0368267, -0.00521544, 0.0103046, -0.0082741, -0.0213537, 
    0.0138165, -0.0807437, -0.0555039, 0.0125463, -0.0581703
    },{
    0.00529477, -0.03225, 0.0219019, -0.029744, 7.0695e-05, 
    -0.0465454, 0.0311842, 0.0512859, 0.0409398, -0.011033, 
    -0.0521441, 0.00651023, -0.0167533, 0.0336573, 0.0210241, 
    -0.050603, -0.0367674, -0.0435, -0.00756214, -0.0603469, 
    -0.00931926, -0.0222876, -0.0249496, -0.0154529, -0.0388787
    },{
    -0.0384343, 0.00445677, -0.0496879, 0.0133485, -0.00637759, 
    -0.0288744, 0.0370803, 0.0654733, -0.00038393, -0.0120263, 
    -0.0104907, 0.0336255, 0.0261344, -0.0217886, -0.045886, 
    0.0525753, -0.0265235, -0.104474, -0.0302514, -0.0194517, 
    -0.00489565, -0.0114393, 0.000948052, 0.01096, 0.00915392
    },{
    0.0326395, -0.0218563, -0.00495621, 0.00222249, 0.0326471, 
    0.0660652, -0.0286669, 0.0523608, -0.0271235, 0.00860878, 
    0.0268796, -0.0180251, 0.055899, 0.0593459, -0.037454, 
    0.0370774, -0.0326737, 0.058215, -0.0101177, -0.0366519, 
    0.00230011, -0.0603438, 0.0568525, -0.0146667, 0.00359627
    },{
    -0.0466078, 0.0226691, 0.0398157, 0.0317619, -0.0171275, 
    -0.0373061, -0.0316722, -0.0164912, 0.031964, -0.00777249, 
    0.0202641, -0.0389986, -0.102055, -0.0477844, -0.0425167, 
    0.0208057, 0.0277074, -0.0130543, 0.00517992, -0.0070104, 
    0.07, 0.0568734, 0.00529482, 0.053358, 0.0405828
    },{
    -0.0481159, 0.00953391, -0.0198284, 0.0178524, -0.0096606, 
    -0.0375187, -0.0119183, -0.028281, -0.0982288, -0.0339885, 
    0.022949, -0.0594297, -0.0615463, -0.0355369, 0.00461031, 
    -0.0663475, -0.056454, 0.0456739, -0.0701675, -0.0225332, 
    0.0285989, 0.0352726, 0.000260163, -0.00583102, -0.0138691
    },{
    -0.00691719, -0.0321069, 0.00547961, 0.0253194, -0.0239713, 
    -0.0774982, 0.00606402, -0.010624, 0.0247248, -0.0360238, 
    0.00279885, 0.0114435, 0.0118362, -0.0250844, -0.00655967, 
    0.0158277, -0.104249, -0.00379665, -0.0263234, 0.000563419, 
    0.0108062, 0.00295291, 0.0131442, -0.0138296, 0.00702185
    },{
    0.0591238, 0.00400951, -0.0454728, -0.0444725, 0.0462365, 
    0.0333958, 0.0131391, 0.0361321, -0.0158614, -0.0532954, 
    0.0221338, -0.0125159, -0.0280043, 0.0413036, 0.0083876, 
    0.00545319, -0.0331397, 0.0077714, 0.0600922, 0.00409861, 
    0.0312791, 0.0171306, -0.0784698, -0.0380276, 0.0291974
    },{
    0.0323473, 0.014572, -0.0110804, 0.0301264, -0.0508011, 
    0.0143055, 0.0324733, -0.0230132, 0.0431601, -0.0258798, 
    0.0417219, 0.0355597, 0.0404461, 0.0588875, 0.00298097, 
    0.0637349, -0.0564508, 0.00207754, 0.0627738, -0.00693891, 
    0.0639834, -0.0161324, -0.0201794, 0.00806473, -0.0778449
    },{
    -0.0464909, -0.00162086, 0.00875161, 0.0343994, -0.0225882, 
    0.0473268, 0.0593878, 0.0640551, 0.039351, 0.0685415, 
    0.00873287, 0.0617031, -0.021791, 0.0103819, 0.0489333, 
    0.016211, 0.013625, -0.0600135, 0.00677914, -0.0237073, 
    0.01948, -0.0288729, -0.0414561, 0.0182839, -0.00908615
    },{
    -0.00428004, 0.067516, 0.0362159, 0.0226449, -0.00453636, 
    -0.0200222, 0.0174906, 0.0143439, 0.00909803, 0.0116009, 
    0.000185773, -0.0113452, -0.00403022, 0.0516842, -0.021431, 
    -0.00609535, -0.051576, 0.0500292, 0.0549501, -0.00946467, 
    -0.0295871, -0.0128686, 0.000724041, 0.00821358, -0.0224738
    },{
    -0.00158797, -0.0214178, 0.00106163, 0.0569942, 0.0619765, 
    -0.0111495, 0.0490848, 0.011262, 0.00787518, -0.0110757, 
    -0.0311153, 0.00042052, -0.0288079, 0.0444266, -0.0059169, 
    -0.0547867, -0.0457396, -0.00291867, 0.0149366, 0.0768904, 
    -0.00101976, -0.0520667, -0.0394636, 0.0137949, -0.0195126
    },{
    0.0213114, 0.00472176, -0.0404923, 0.036478, 0.0181439, 
    0.0188562, -0.00168916, 0.0364691, 0.00703057, -0.00152079, 
    -0.0358501, 0.0111059, 0.0248183, 0.00168199, 0.0808494, 
    0.0167301, -0.000451433, 0.044052, 0.0372692, 0.0630759, 
    -0.0271784, -0.0214566, -0.0303972, 0.0504076, 0.0366075
    },{
    -0.0110656, -0.0175171, 0.0504806, 0.0757029, 0.0801481, 
    0.023528, 0.0403693, 0.0138401, 0.00157253, 0.0597997, 
    0.0438075, 0.0208253, 0.0202925, 0.00976408, -0.0116556, 
    0.0682854, 0.0238439, 0.0499859, -0.00248436, 0.0393667, 
    -0.0285374, 0.0224019, -0.00931081, 0.0199927, 0.0308835
    },{
    0.0343344, 0.0129231, 0.00857942, -0.0192055, 0.0331092, 
    0.045436, 0.0344805, 0.0119034, -0.0047951, 0.00771157, 
    0.0724918, -0.00114313, -0.0111435, -0.00489101, 0.0231855, 
    0.0656848, 0.0248982, -0.0339146, -0.0128802, 0.0167655, 
    0.0197354, 0.0584337, 0.0373029, 0.00430001, 0.00704565
    },{
    -0.0314449, 0.00554787, -0.0104325, 0.0158363, 0.000244577, 
    0.0145601, 0.0384258, 0.0639853, 0.0162416, 0.0118813, 
    0.00781641, -0.0306617, 0.0152492, -0.0164239, 0.0324139, 
    0.0683458, -0.0225509, 0.0264621, 0.0104985, 0.0212164, 
    0.00552331, 0.000949853, 0.0128764, 0.00233173, 0.00560293
    },{
    -0.00234482, 0.0125746, 0.0421256, -0.0335337, -0.00823546, 
    0.0531807, 0.0402448, -0.01194, 0.0344854, 0.0559839, 
    0.00226902, 0.011553, 0.0127196, 0.0362396, 0.00358874, 
    -0.0830186, -0.055877, 0.0464524, 0.058362, 0.0542744, 
    0.00534191, 0.016848, 0.00161441, 0.0366701, 0.00653723
    },{
    -0.0398761, -0.0020761, 0.00142592, -0.0232756, -0.0275757, 
    0.0205113, 0.0102639, -0.0758925, -0.023474, 0.00255027, 
    0.0121863, 0.0279339, -0.0528262, -0.0100601, -0.02272, 
    0.00165473, -0.0249376, -0.00217403, 0.019342, -0.00521948, 
    -0.010429, -0.0159852, 0.028038, 0.0257697, -0.0406726
    },{
    -0.0341448, 0.00414157, 0.00226923, 0.023542, -0.0102262, 
    -0.00758033, -0.0149675, -0.0226264, -0.00692444, 0.0091683, 
    -0.0308271, -0.0297084, -0.0151182, 0.0504819, -0.0280982, 
    0.0276885, -0.0117738, 0.0190332, 0.00698273, 0.0153995, 
    0.0411327, 0.0153981, -0.00494471, 0.0425756, 0.0134075
    },{
    0.022276, -0.0238584, 0.0218716, -0.0201541, -0.0341378, 
    0.0474601, -0.0271874, 0.0155888, -0.0128059, 0.00751586, 
    0.0360279, 0.0194793, 0.0250841, -0.00016811, -0.000118499, 
    -0.00386478, 0.0230442, 0.0332887, 0.0242006, -0.0151052, 
    0.0472205, 0.0243161, -0.00369582, -0.0115526, 0.00462823
    },{
    0.00481291, -0.0362524, -0.0784804, 0.00492537, -0.0234387, 
    0.0080269, -0.0345674, -0.0293999, -0.0543566, 0.00741528, 
    0.0523081, 0.0278884, -0.0497871, 0.0348572, 0.0440286, 
    -0.060149, 0.0123092, 0.0140414, 0.0175694, 0.0231916, 
    -0.0548154, 0.0241934, 0.051299, 0.0160784, 0.00410315
    },{
    0.0292229, -0.0106849, -0.0198745, -0.0209627, 0.00310362, 
    0.0324743, 0.0458079, 0.00173055, 0.0576694, 0.0311539, 
    0.0548681, 0.0387402, -0.0162001, 0.0037581, -0.00541779, 
    -0.0294957, -0.0475453, 0.0141624, -0.0154592, -0.0306979, 
    0.0282032, -0.000713345, -0.00843208, -0.0121947, 0.00177401
    },{
    0.00939033, 0.0115296, -0.0333275, 0.0369191, 0.0699678, 
    0.0176588, -0.0512742, -0.003532, -0.0397689, -0.0244841, 
    0.00597388, 0.0131768, -0.038762, 0.0233559, 0.0119119, 
    -0.0363465, -0.0173902, -0.0135656, 0.000735259, 0.0514877, 
    -0.0286884, -0.0383449, 0.0406229, 0.0495363, 0.0767527
    },{
    -0.032189, 0.0134649, 0.00528896, 0.0227, 0.0306083, 
    0.012443, -0.0124924, -0.0386786, 0.0761976, 0.0546192, 
    0.0640109, -0.0200548, -0.0455392, -0.0333956, 0.0248436, 
    0.0189601, -0.0581898, -0.00142989, 0.0245223, 0.0327091, 
    -0.0510185, 0.00973123, 0.0276858, -0.00544921, 0.00106112
    },{
    0.0478653, 0.0459606, 0.0211792, 0.0355854, -0.0428976, 
    0.0110056, -0.0141037, -0.0137894, -0.0175909, -0.0105791, 
    -0.0446331, 0.0128462, -0.0329114, -0.0161312, -0.0557783, 
    0.0057373, 0.0178224, -0.00899961, 0.00958616, 0.0243554, 
    -0.0203861, 0.0278776, -0.0339638, -0.0474499, 0.00531098
    },{
    0.00994495, 0.0109005, 0.0441869, 0.0173769, -0.000719991, 
    0.010912, 0.0438173, 0.020798, 0.0359289, -0.0214416, 
    -0.0214272, -0.0245487, 0.0146185, -0.0303274, -0.0428207, 
    -0.0138033, 0.0570023, 0.0340084, -0.0350668, -0.0245856, 
    -0.00541442, 0.0136205, 0.025237, -0.0239012, -0.0507741
    },{
    -0.00312298, 0.0568665, -0.011103, -0.0254528, -0.00105627, 
    0.0158694, 0.002893, 0.0352645, 0.0477877, -0.0420701, 
    -0.0305907, -0.00788719, -0.0557897, -0.00714248, -0.0276754, 
    0.031431, 0.0620703, 0.0233439, 0.00573055, 0.0132367, 
    0.0356239, 0.033723, 0.0299117, 0.0235907, 0.00622642
    },{
    0.0339002, 0.0081493, 0.0246429, 0.0243128, 0.00840612, 
    -0.0298184, 0.0199339, -0.0154619, 0.00769107, 0.0327741, 
    0.0301201, -0.00512352, -0.0423913, 0.0278818, 0.00140257, 
    0.0336155, 0.00558087, 0.0343268, 0.0253896, 0.034296, 
    -0.0105944, 0.0121083, 0.0025389, -0.0169112, 0.0103802
    },{
    0.013333, 0.0243857, 0.0140924, -0.0327743, 0.0225209, 
    0.0430746, 0.0319708, 0.0599535, -0.0148604, -0.0148349, 
    -0.0197368, -0.0270201, 0.00867614, -0.0585189, 0.0176308, 
    0.0599286, 0.0465387, -0.0167386, 0.0114705, 0.0414185, 
    0.0101897, 0.00455581, 0.0243529, 0.0555126, 0.0086149
    },{
    -0.00329625, 0.0280261, 0.0257711, 0.00929553, -0.00149991, 
    0.0366566, 0.0466636, -0.00724916, 0.0147632, 0.0155959, 
    -0.0154796, 0.0205534, 0.0366901, -0.00974891, 0.00204491, 
    0.00377801, -0.00038865, 0.0269268, -0.0223268, 0.0379167, 
    -0.0132848, 0.0488069, -0.0386421, 0.0308281, 0.0290297
    },{
    -0.0115494, 0.0475663, -0.0189482, -0.0381985, 0.0365146, 
    -0.0348743, -0.00196226, -0.000834887, 0.00946982, 0.0541422, 
    -0.0295575, -0.0110581, 0.0323433, 0.0145719, -0.0414837, 
    0.038406, 0.0414614, 0.0180497, 0.0221325, 0.00251286, 
    -0.014947, -0.00311884, -0.0444617, 0.0491607, -0.00196082
    },{
    -0.0028402, -0.00604919, 0.0485084, 0.0464203, -0.0473758, 
    0.011514, 0.0218967, -0.0194091, -0.0272655, -0.0568334, 
    0.0394102, 0.0282675, 0.0098104, 0.0200924, -0.032194, 
    0.0736943, 0.0551441, 0.0483211, 0.0347744, -0.00207025, 
    0.0146461, -0.00413219, 0.0364572, -0.0212176, -0.0500725
    },{
    -0.0424517, -0.0480736, -0.0521235, 0.0271947, -0.010777, 
    0.0234805, 0.0532834, -0.0236562, 0.000673453, -0.0262841, 
    0.0234766, -0.0138352, 0.035599, -0.00926181, -0.0369783, 
    -0.0163729, -0.0125442, -0.0152709, 0.0222534, -0.0146873, 
    0.0159269, 0.00590315, -0.0235915, 0.0134862, 0.0204576
    },{
    -0.0327098, -0.0308981, 0.00477851, 0.00956777, 0.0529224, 
    -0.000206252, 0.00953624, 0.00439445, 0.00526133, 0.00859505, 
    -0.00513649, -0.00319867, -0.00952539, -0.0318544, -0.00818984, 
    0.0273231, 0.0271242, -0.00684197, -0.00308371, 0.0015779, 
    0.0332324, -0.0649996, 0.00353293, -0.00793872, 0.0170134
    },{
    -0.0180019, 0.028226, -0.0415256, -0.00612179, 0.00811781, 
    0.033401, 0.0350938, 0.0280214, -0.00167444, 0.0043332, 
    -0.00799862, -0.0284958, 0.0349486, 0.00211845, 0.0254213, 
    -0.0540321, -0.00352439, -0.0319688, 0.0359091, -0.0325112, 
    0.0147989, -0.00344148, -0.0193098, -0.0145817, -0.0353768
    },{
    -0.0379502, -0.0230497, -0.00896729, 0.0586868, 0.0216894, 
    0.0234004, 0.0243373, -0.046829, 0.0072713, 0.0405464, 
    -0.043098, 0.00316105, -0.0187188, 0.0137063, -0.000917461, 
    -0.00184516, 0.02954, 0.0349629, -0.014081, -0.029346, 
    -0.0439653, -0.0350631, 0.0155548, 0.000205238, -0.0270681
    },{
    0.0184903, 0.0107884, 0.0276382, -0.0325232, -0.0630715, 
    -0.0141861, -0.0189212, 0.040169, 0.0261203, 0.0022945, 
    0.00484241, 0.0060984, 0.0411572, 0.0278562, -0.0493737, 
    -0.0178311, 0.00179943, -0.0306448, -0.0202502, -0.00538346, 
    -0.0121639, -0.0464263, 0.0174112, 0.0571209, -0.000364614
    },{
    0.0275937, 0.044251, 0.0527629, -0.00189064, 0.0279089, 
    -0.015667, -0.0172223, -0.0177563, -0.0140953, 6.89522e-05, 
    -0.00175069, -0.00918104, 0.0202308, 0.0356418, -0.0252738, 
    0.0448578, 0.00893657, 0.0525181, 0.0575639, -0.00946477, 
    0.0400114, 0.0769221, 0.0545704, 0.0471467, 0.00221029
    },{
    -0.02681, -0.062399, -0.0615917, -0.0601977, 0.00488225, 
    -0.0143612, 0.0207902, -0.00464461, -0.0241421, 0.0143398, 
    -0.00699893, 0.0488953, 0.000731298, -0.0212227, -0.0158962, 
    0.00554307, 0.00240369, -0.000562093, -0.00338257, 0.0198028, 
    0.0339794, 0.0343235, 0.0564748, 0.0270898, -0.0118769
    },{
    -0.00175, -0.0411092, -0.00760665, -0.0118413, 0.0513653, 
    0.00924399, -0.0156322, -0.0463808, -0.0543747, -0.00601738, 
    0.0183326, 0.017101, 0.0616679, 0.00151023, 0.0365588, 
    0.0322331, 0.0470481, 0.0161586, 0.0206624, 0.0429396, 
    -0.0377275, -0.00521009, 0.00255304, -0.0302054, -0.0190788
    },{
    -0.0213234, -0.0187262, -0.0551751, 0.0181285, -0.00854697, 
    -0.00870652, 0.0167118, -0.0110107, -0.0124197, 0.0348889, 
    0.0281125, 0.0496439, -0.00999754, 0.00036444, -0.00572593, 
    -0.0341029, 0.0224081, -0.0131054, 0.0326994, -0.00328754, 
    0.02612, 0.0171809, 0.00387813, 0.0237064, 0.0347429
    },{
    0.0247009, 0.0119802, 0.0128036, -0.0323128, -0.0164005, 
    0.0428793, -0.0192244, 0.00583501, 0.00298079, 0.0200528, 
    -0.0529718, 0.00923001, -0.026337, 0.00293193, 0.0187533, 
    0.0326847, -0.0309921, -0.00690715, -0.0250079, 0.0244148, 
    -0.024204, 0.0285386, -0.00780247, -0.0339347, 0.00140073
    },{
    0.0279323, -0.0290386, -0.0151664, -0.0357686, 0.015445, 
    -0.000925738, 0.0446236, 0.0329838, 0.0459855, -0.0126319, 
    -0.0100001, -0.00770663, 0.0451903, -0.0260447, 0.00893093, 
    -0.0505184, -0.00294857, -0.00855803, -0.0162579, -0.0326208, 
    -0.0216844, 0.0345729, 0.00849316, -0.039686, 0.000912978
    },{
    0.0658403, 0.00523572, -0.00308468, 0.00304284, 0.0246807, 
    -0.0315848, -0.0025076, 0.000790413, -0.00212805, -0.0560635, 
    -0.00636665, 0.0152224, 0.024139, 0.00857141, 0.00275405, 
    0.0213412, 0.0322715, 0.0724388, 0.00514121, 0.072728, 
    0.0397886, 0.0302682, 0.00362113, -0.00934577, 0.048315
    },{
    0.0711272, 0.0369286, -0.00970858, 0.0322616, 0.0680941, 
    0.00897168, 0.057504, -0.00465264, 0.00729657, 0.0207651, 
    0.0145882, 0.0577725, 0.0125328, -0.0260587, -0.00411355, 
    0.00411388, 0.0123877, 0.0285614, 0.0212441, 0.0295838, 
    0.0676319, -0.0180796, -0.039669, -0.0105434, 0.0606592
    },{
    0.00792351, 0.0645085, 0.0303942, 0.00779206, 0.0113851, 
    0.0636334, 0.0596402, 0.0547664, 0.020658, -0.0431648, 
    -0.0316403, -0.000839943, 0.0559761, -0.0455564, 0.0145477, 
    0.0141611, -0.0359547, 0.0633223, 0.0126249, 0.0125098, 
    0.0795397, 0.0357561, -0.00538805, 0.00127369, 0.0292829
    },{
    0.0305129, -0.0220808, 0.0264435, 0.0359207, 0.0038568, 
    0.00588732, 0.0603108, 0.00328265, 0.0516667, 0.0120191, 
    -0.0133653, 0.035956, 0.017382, 0.0229285, 0.0253596, 
    -0.00795972, 0.0118874, 0.0258573, -0.000256704, 0.00922163, 
    -0.00908575, 0.0245919, -0.0138767, -0.0273764, 0.0709922
    },{
    0.0129795, 0.0311358, 0.0466699, -0.0193082, 0.000286068, 
    -0.0132444, 0.0254421, -0.0121611, -0.012523, 0.0307074, 
    0.0214891, 0.00961302, 0.0516945, 0.00281938, 0.0369052, 
    0.0741345, 0.063862, 0.0348619, 0.0449384, 0.00345995, 
    0.0161675, 0.0438242, -0.0365419, -0.0107464, -0.0105793
    },{
    -0.0384775, -0.0381417, -0.0227327, -0.00410569, -0.048722, 
    0.0110428, 0.0446571, 0.0546855, 0.0565922, 0.0521356, 
    -0.00814437, 0.0444453, -0.0133574, 0.00491742, 0.0292086, 
    0.036146, 0.026271, 0.00519348, 0.0134697, -0.0444936, 
    -0.0499414, -0.031587, -0.0266915, -0.0439546, -0.0237879
    },{
    0.0108596, -0.0256946, 0.0240887, 0.00124729, -0.00524729, 
    -0.0222551, 0.00681904, 0.0629138, 0.0348851, 0.0607861, 
    0.00957656, 0.0084556, -0.0206999, 0.0576501, 0.0156326, 
    0.0528396, 0.0184864, -0.055396, 0.0342002, -0.00932966, 
    -0.0147641, 0.0277824, -0.0379824, 0.00644409, 0.0215728
    },{
    0.0144521, 0.0289493, -0.0226525, -0.02704, 0.0561015, 
    -0.0448896, 0.0402659, 0.0302521, -0.00253646, 0.027922, 
    0.0593082, 0.00460936, -0.0145721, -0.0598182, -0.0659451, 
    0.00213396, -0.0399581, -0.0482902, -0.0617801, 0.010591, 
    0.0098248, -0.00503303, 0.0190523, 0.0119225, 0.0137135
    },{
    -0.0208517, 0.0274887, -0.050087, -0.0377884, -0.00996599, 
    -0.00283776, -0.0401513, -0.0048671, 0.0123074, 0.00554924, 
    0.00662162, -0.0355641, -0.00110106, -0.020974, 0.027313, 
    -0.0333486, 0.0491566, 0.0348839, -0.00822009, 0.0353239, 
    -0.036206, -0.0247196, 0.0259074, 0.00985092, -0.019225
    },{
    0.0199469, -0.00171231, 0.02016, 0.0340305, 0.0136255, 
    -0.0264337, 0.0351527, 0.0312936, -0.00680292, -0.0306025, 
    -0.0337402, -0.00935171, 0.0246108, -0.0350499, 0.00651283, 
    0.0272205, 0.00137387, -0.0423495, 0.0283458, 0.00230718, 
    0.0228154, -0.0214331, -0.0192936, 0.0334969, -0.00318215
    },{
    0.0267149, 0.0711631, -0.00316029, 0.043254, 0.0459647, 
    -0.0200173, -0.0153456, 0.000127522, 0.0134039, 0.0294287, 
    -0.0296235, 0.0269077, 0.0184731, -0.01829, -0.00711655, 
    -0.0161078, 0.0213919, -0.000564344, 0.0436885, 0.0312652, 
    0.0572879, 0.0187821, 0.0474579, 0.0274404, -0.048668
    },{
    -0.00252507, 0.00556808, -0.0172845, 0.00833968, 0.0722741, 
    -0.000447568, 0.0339724, 0.0288775, 0.0202315, 0.00579764, 
    -0.0460488, 0.00783429, -0.0156905, -0.0387274, 0.0161583, 
    0.021751, 0.0567553, -0.0164632, 0.0139885, 0.0329747, 
    0.0674405, 0.0405704, 0.0557253, 0.0148273, 0.0145958
    },{
    -0.0508148, -0.0352162, -0.0217481, 0.0257268, -0.0321352, 
    -0.0302473, -0.0574842, -0.029268, 0.0347163, 0.0186996, 
    0.00579499, 0.0484805, 0.0406375, 0.0118536, 0.0209175, 
    0.00749427, 0.0598531, 0.000307637, -0.0359692, -0.0103131, 
    -0.0239642, 0.0323703, -0.00161415, 0.017197, 0.00558443
    },{
    0.00963671, -0.0461631, -0.0163074, -0.0234089, 0.0187798, 
    0.0501626, -0.00929512, -0.00617401, -0.0397723, 0.00475716, 
    0.022092, -0.0558964, 0.0239756, -0.021257, -0.027307, 
    0.0136394, 0.00955763, 0.0038564, 0.0066031, -0.00722243, 
    -0.0121829, 0.0253518, -0.0106164, 0.00950418, -0.0213982
    },{
    0.0231932, 0.0586739, -0.00448065, 0.0185801, -0.0438724, 
    -0.0359906, -0.00861612, -0.025251, -0.0206789, -0.0117842, 
    -0.00959109, 0.0145384, -0.00527814, -0.0323042, -0.0204285, 
    -0.0158336, 0.00569937, -0.0234541, -0.0138963, 0.0118822, 
    0.0738954, 0.000609601, 0.0487511, 0.0396883, -0.0276994
    },{
    0.00592309, -0.00843554, 0.00201801, 0.0269406, 0.0423325, 
    0.00934589, 0.0357101, -0.00471666, 0.026993, 0.0272792, 
    0.0189263, 0.0235964, -0.00359834, -0.0407498, -0.0124663, 
    -0.0100352, -0.0105099, 0.0511722, 0.0450508, -0.00636255, 
    0.00254398, 0.0227273, 0.0449652, -0.0167187, -0.0173246
    },{
    0.0222163, -0.00320321, 0.0112934, -0.0104583, 0.000602181, 
    -0.0259911, 0.00866052, -0.0626061, -0.031986, -0.0414107, 
    -0.0200565, -0.0104585, -0.0135793, -0.0816848, 0.0351016, 
    -0.0069646, -0.00956136, -0.0178044, -0.0336552, -0.061854, 
    0.0284696, -0.0207699, 0.047071, -0.0420967, -0.0245035
    },{
    0.028221, -0.048535, 0.0163169, 0.027609, 0.0283987, 
    -0.0118177, -0.0365975, -0.00429368, 0.01356, 0.028904, 
    -0.0285471, -0.0376693, 0.0124164, 0.0431615, 0.00692287, 
    -0.0412536, 0.0397398, -0.00601722, -0.0138676, -0.0280455, 
    -0.0377633, 0.0114938, 0.0317528, -0.00804409, 0.0252652
    },{
    -0.0492052, -0.0373058, 0.0192909, -0.0427242, 0.0279009, 
    -0.0109929, -0.0203199, -0.0576768, -0.00391551, -0.0142763, 
    -0.024277, -0.0344086, 0.00501496, -0.00405188, 0.011583, 
    0.0161443, -0.0294876, -0.0100833, -0.0174794, -0.0106815, 
    0.0237504, 0.0100533, -0.00317298, -0.0521724, -0.000395759
    },{
    -0.0110161, -0.0696956, 0.0083182, -0.0283743, -0.0644003, 
    -0.01333, 0.0303865, 0.0465388, -0.0295682, -0.0535787, 
    0.03752, -0.0378006, 0.0187862, 0.0138462, -0.0483105, 
    0.00262846, -0.0371182, -0.0252625, -0.00949896, -0.0112439, 
    -0.0178144, -0.0379715, -0.0460696, -0.0289794, 0.020481
    },{
    -0.0044672, 0.0106618, 0.0102137, 0.0469509, -0.0321775, 
    0.0106665, -0.000205896, 0.0188008, -0.0539469, 0.0161867, 
    -0.0218469, 0.00898003, 0.0344312, -0.00996047, -0.0174351, 
    -0.0372828, -0.080298, 0.0153057, 0.00160344, -0.034263, 
    0.00945832, -0.00273646, -0.0210086, 0.0748645, -0.0127577
    },{
    0.00489847, 0.00265216, -0.0247618, 0.0752699, 0.0117371, 
    0.00979648, -0.00602555, -0.0158617, -0.0037181, 0.0392813, 
    -0.0195848, -0.0435419, 0.00655245, 0.0353838, -0.00233351, 
    0.0136733, -0.0288473, -0.0288695, -0.0686487, -0.0186272, 
    -0.030665, 0.0206548, -0.0331207, 0.0243071, 0.0235875
    },{
    -0.0120345, 0.0261687, 0.0175418, -0.00328972, -0.0136511, 
    0.0357795, 0.0756995, -0.0108063, -0.0525701, 0.0197883, 
    -0.0463461, -0.00538675, -0.016433, -0.0125296, -0.00239708, 
    0.0159369, -0.0105932, -0.0369312, 0.0133128, -0.0111474, 
    -0.00600557, 0.0108862, -0.0534992, 0.0172072, -0.0052134
    },{
    -0.0251039, 0.0289155, -0.0616894, -0.0480667, 0.0320219, 
    0.0161399, 0.0271932, -0.0164914, 0.0582016, 0.0268803, 
    0.0193541, 0.0288763, 0.00317321, -0.0663669, 0.0253116, 
    -0.0208085, -0.0105737, -0.0493396, 0.0188407, 0.00603092, 
    0.0392061, -0.0287402, -0.00629989, -0.00636909, 0.0354406
    },{
    -0.0134772, -0.0292519, 0.0349607, -0.0321689, -0.00199415, 
    -0.0248337, -0.0420588, 0.0443137, -0.0126392, 0.00866565, 
    -0.0335282, 0.00475774, 0.0595414, -0.0374313, 0.00314905, 
    0.00734014, -0.0286114, 0.0379477, -0.0610017, -0.0492925, 
    0.0208373, -0.0323351, 0.0148533, 0.0113353, 0.0134369
    },{
    0.00169319, -0.0143106, -0.0228234, 0.0137983, 0.0229717, 
    0.0463836, 0.0243613, -0.00365471, 0.0432946, 0.0291239, 
    0.0121232, -0.0165493, -0.0398647, -0.0378335, 0.0221333, 
    0.0585418, 0.0310947, -0.0663401, 0.0176552, -0.0195704, 
    -0.00340152, -0.0459993, -0.0262617, -0.0552051, 0.045301
    },{
    0.0239512, -0.0240672, -0.0343758, -0.00229301, -0.0629853, 
    -0.010232, 0.0281713, 0.0219531, -0.0338122, -0.0990592, 
    -0.0401416, -0.00537996, 0.0369583, -0.0189276, 0.0426395, 
    0.0195471, -0.0165399, -0.0117675, -0.0544116, -0.0570001, 
    -0.03044, -0.0614689, 0.000177346, 0.0612125, 0.010682
    },{
    -0.0430982, 0.0160934, 0.0292075, -0.0161871, -0.0413703, 
    -0.00369467, -0.0126654, 0.0577614, 0.101922, -0.034275, 
    -0.029374, -0.0184892, 0.0188584, -0.00555607, -0.0429364, 
    -0.03953, -0.00973316, -0.0611231, 0.00555569, -0.0203566, 
    -0.0350071, -0.0588504, -0.0227919, -0.0214319, -0.0217123
    },{
    -0.00493424, -0.0128939, 0.0230989, 0.0413443, -0.0239783, 
    -0.00897091, 0.0262144, 0.0425505, -0.0237741, -0.0316928, 
    -0.00337119, -0.0477354, 0.0169363, 0.0258158, -0.0158261, 
    -0.000512177, -0.0298432, 0.0381445, 0.0603814, -0.00850937, 
    -0.00434572, -0.0226818, -0.00937219, 0.0467778, 0.0193512
    },{
    0.0238462, -0.0360554, 0.0389308, 0.0400675, 0.0127353, 
    -0.027424, -0.0531081, -0.0335748, 0.0216944, -0.0112089, 
    -0.0306498, 0.0161496, -0.0157782, -0.0152858, -0.00367014, 
    0.0336489, -0.055993, -0.0355442, -0.0103587, -0.0129034, 
    -0.0207955, -0.00291636, 0.0117347, 0.00941264, 0.0298238
    },{
    -0.00276734, 0.0437049, 0.00761902, 0.0295262, 0.0282861, 
    0.0228616, -0.00134035, 0.0223817, -0.00375007, 0.00311839, 
    0.0255, 0.00543374, 0.0233649, -0.0229136, 0.0435842, 
    -0.0147017, 0.00936377, 0.0107445, -0.0149205, -0.00371444, 
    -0.0113995, -0.0414067, 0.0196014, 0.0231359, -0.0040531
    },{
    -0.0235714, -0.0416368, 0.00765461, -0.0149827, -0.0365047, 
    -0.0341596, -0.0335172, -0.0191971, 0.0483543, 0.00897576, 
    0.0169207, -0.0203902, 0.0524789, 0.037629, 0.0172383, 
    -0.0288517, -0.0561013, 0.0213539, 0.00727311, -0.0141708, 
    0.0324109, -0.00264177, -0.0411462, -0.00304751, -0.0547418
    },{
    -0.0319743, -0.0484063, -0.074437, -0.0547024, 0.00198687, 
    -0.0169683, 0.0239888, 0.0289566, 0.000426138, -0.0280367, 
    -0.0173493, 0.0793494, 0.0744831, 0.0382991, -0.0257188, 
    -0.0784326, -0.0865484, -0.0647568, -0.0227425, -0.0461205, 
    -0.0251074, -0.0509206, 0.0015638, 0.0128268, -0.038255
    },{
    -0.0109237, -0.0836632, -0.045548, 0.032372, 0.0550568, 
    -0.0165608, 0.00859084, -0.0254504, 0.0225163, 0.0224973, 
    -0.00110816, 0.000217957, 0.0376958, 0.0696166, -0.00912346, 
    -0.0779562, -0.117768, 0.0356924, -0.000654667, -0.060088, 
    -0.0376573, 0.0458628, 0.0823197, 0.0310831, -0.0345368
    },{
    0.0502964, 0.0177321, -0.00086403, 0.0815481, 0.103359, 
    0.0271301, 0.0130613, 0.0193614, 0.00456718, 0.0312368, 
    0.00228718, 0.00336417, -0.028969, 0.00934897, -0.0215384, 
    -0.0556538, -0.00410312, 0.0190555, -0.0573451, -0.0262775, 
    -0.0820894, -0.0044366, -0.0146791, 0.00695772, -0.0159438
    },{
    0.0345955, -0.0482639, -0.0422693, -0.050967, -0.0419803, 
    -0.005422, -0.0157298, -0.0418455, -0.0227829, -0.0257208, 
    0.0274548, 0.0127397, -0.0477448, -0.00553967, 0.0218332, 
    0.0639207, 0.0546565, 0.00676522, 0.0206037, 0.1077, 
    -0.0474419, 0.00161038, 0.117414, 0.0247622, -0.0488868
    },{
    0.0140502, -0.0342672, -0.0109286, 0.0384669, 0.0233671, 
    -0.0561655, -0.0784832, -0.0423884, 0.0559907, 0.113384, 
    -0.0354295, -0.0564214, -0.0886759, 0.028407, -0.00289226, 
    0.0311049, -0.000981932, -0.114525, 0.0010235, -0.0278716, 
    0.098232, 0.0341039, 0.0104739, -0.0160915, -0.0606436
    },{
    -0.0315396, -0.0618716, 0.0349648, -0.0339203, 0.00810351, 
    -0.0378715, -0.017082, 0.043718, -0.0289005, 0.04751, 
    -0.0173462, 0.0230665, -0.00735279, -0.058317, -0.0359081, 
    0.03348, -0.0102975, -0.0172355, 0.0196011, -0.00516463, 
    -0.00869283, 0.0195141, 0.0258847, -0.0348068, -0.0525073
    },{
    0.0588659, 0.0477862, -0.0700099, -0.0485202, -0.0502674, 
    -0.0710937, -0.0844924, -0.0788619, -0.00155356, 0.062053, 
    0.0199242, 0.0725173, 0.0565849, 0.00889392, 0.010864, 
    0.0486213, 0.0910172, 0.0301323, 0.0558537, 0.0657511, 
    0.0256778, 0.00658731, -0.0159128, 0.000752073, 0.0162314
    },{
    -0.032518, 0.000739076, 0.0682067, 0.0272205, -0.0216744, 
    -0.0331761, 0.0350302, -0.0156073, -0.0265483, -0.0168874, 
    -0.0070635, -0.028201, -0.0252055, 0.0265248, 0.0353837, 
    -0.0457641, 0.0288018, 0.0306132, -0.0424819, -0.0837799, 
    0.0128324, -0.0345616, -0.0594347, -0.0574225, 0.0516958
    },{
    0.0349333, 0.0689101, 0.0340518, -0.0265743, -0.0901391, 
    0.0316645, 0.0214777, 0.0103515, -0.0449336, -0.0533495, 
    0.0196124, 0.0565928, -0.00861324, 0.0476215, -0.0156196, 
    0.00425319, 0.0127166, -0.0470436, 0.0598805, 0.0685564, 
    0.050464, 0.0127404, 0.0135149, 0.0437257, 0.0208123
    },{
    -0.0116286, -0.123801, -0.116004, -0.0792817, -0.0275979, 
    0.00834063, -0.00761754, -0.103597, -0.075299, 0.0307935, 
    0.057878, 0.0284157, 0.039895, 0.0642939, 0.0321357, 
    -0.00988109, -0.0231363, 0.0424659, -0.0435771, -0.0442656, 
    -0.0414106, -0.0264555, 0.026306, -0.0749606, -0.0731753
    },{
    -0.0568093, -0.0619777, -0.00862122, -0.0135568, -0.0218361, 
    -0.0344257, -0.0791713, -0.0348122, 0.0589092, 0.0133965, 
    -0.0183764, -0.0112778, 0.0789204, 0.0118859, -0.022213, 
    -0.0202592, -0.0442983, -0.0372131, -0.0123811, -0.0392187, 
    -0.0654053, -0.0121283, 0.00743289, 0.00753036, 0.0481367
    },{
    -0.0712154, -0.037875, -0.0370329, -0.0225631, 0.0228984, 
    -0.0600296, -0.0669436, -0.0571878, 1.81493e-05, -0.00744699, 
    0.00675738, -0.0285035, -0.0529734, 0.0906203, 0.0627034, 
    0.00651944, 0.0112705, 0.0240776, 0.0456409, 0.0545828, 
    -0.0136562, -0.0236774, -0.0403609, 0.0451818, -0.0372069
    },{
    -0.0310592, -0.085758, -0.0129008, 0.0226387, 0.0241117, 
    -0.049413, -0.0508187, -0.00197804, 0.0198809, 0.028443, 
    -0.0164915, -0.0562248, -0.0599101, -0.0260905, -0.0248975, 
    0.0326457, 0.0471453, -0.029473, -0.0767971, 0.0126028, 
    0.00416792, -0.0402128, 0.00753484, -0.0490037, -0.0251445
    },{
    0.0145282, 0.0374345, 0.0542457, 0.0385475, 0.000983337, 
    0.0374321, 0.0282052, 0.0110414, -0.0231279, -0.0583047, 
    0.0101003, 0.0105021, -0.0408619, -0.0444147, 0.00304178, 
    0.0386711, 0.0443819, -0.032294, 0.0132114, 0.0457395, 
    0.00586709, 0.0678814, 0.0586804, -0.000612984, 0.0227611
    },{
    0.00910073, -0.0231665, 0.026678, -0.0409205, 0.0039159, 
    0.047148, 0.0423378, 0.0337366, -0.0429771, -0.0715332, 
    -0.0256801, 0.0204565, 0.0760346, -0.0664024, -0.0454776, 
    -0.0271779, 0.0478767, 0.0629975, -0.0697183, -0.00938523, 
    -0.0436207, -0.021519, -0.000158008, 0.0159373, 0.0167712
    },{
    -0.0491682, 0.0103046, 0.00880185, 0.0589189, 0.0342826, 
    -0.0407891, -0.00206773, -0.000353282, 0.0228392, -0.00948635, 
    -2.84482e-05, 0.0604564, 0.0284751, 0.0166254, -0.00290956, 
    0.0025241, 0.0703595, -0.082392, -0.0184405, -0.022031, 
    -0.0304056, -0.00286282, 0.00426707, -0.0419967, -0.0479485
    },{
    -0.0136244, 0.0442671, 0.0179491, 0.0506475, -0.0375143, 
    0.0349869, -0.0230717, 0.0348097, -0.0312404, -0.0108815, 
    0.0617024, 0.0323023, -0.0246696, 0.0405202, 0.0116478, 
    0.00531194, 0.0427509, 0.0160419, 0.0670162, 0.0677902, 
    -0.0312631, -0.00266299, -0.0145404, -0.0123688, 0.0480922
    },{
    -0.0338597, 0.0336272, -0.0126804, -0.0131977, -0.00290101, 
    -0.0336542, -0.0274946, 0.00120827, 0.0157787, -0.00908737, 
    -0.0602628, 0.0426273, 0.00214364, 0.0537959, 0.0394344, 
    0.0391241, -0.0244404, 0.0361165, 0.0369931, 0.0709577, 
    0.025411, 0.0223771, 0.00346314, 0.0253363, 0.00329848
    },{
    0.0332804, -0.017517, 0.0372012, 0.0228629, 0.0150721, 
    0.0685238, 0.0285096, -0.00131555, 0.0380506, 0.00854861, 
    0.0446841, 0.0165289, 0.0295138, 0.00797167, 0.0593203, 
    0.0357885, -0.0144552, 0.0154621, -0.0214875, 0.0183545, 
    0.0218722, -0.00885618, 0.0274688, 0.0272637, 0.0140256
    },{
    0.0248868, 0.0135364, -0.0207493, -0.0129413, -0.0355563, 
    -0.0120587, -0.00797702, 0.0203368, -0.0211934, -0.0296689, 
    -0.0318808, 0.00506352, -0.019543, 0.0137921, -0.0271124, 
    -0.0322892, 0.0327263, 0.0103925, -0.0145922, 0.0446177, 
    0.0387555, -0.0154284, 0.025659, 0.00598699, 0.0518023
    },{
    0.0335759, -0.031982, -0.00242497, 0.046901, -0.0302444, 
    -0.00130494, 0.0277472, 0.0365657, -0.0272332, -0.0704675, 
    0.0824431, 0.0066744, 0.00526955, 0.0401842, -0.0117695, 
    0.0205509, -0.0284454, -0.0334721, 0.00600659, -0.0174045, 
    0.0294852, 0.0238648, -0.0109158, -0.0513549, -0.00187527
    },{
    -0.0449506, 0.0244117, -0.02679, -0.0175049, 0.0124863, 
    -0.00321501, -0.0272576, -0.0214518, 0.0184892, 0.0281087, 
    0.0355237, 0.0461888, 0.0161368, 0.0348228, 0.0488678, 
    0.0207224, 0.0214211, 0.0262722, 0.0480539, 0.0226099, 
    -0.026051, -0.0359156, 0.000270191, 0.0100148, -0.0385296
    },{
    0.0032568, -0.0210472, 0.0314085, 0.0101545, 0.000199998, 
    0.0135855, -0.0243529, 0.00145477, 0.0538072, -0.0279645, 
    0.00757295, 0.0154475, -0.0244391, -0.0571654, -0.040915, 
    0.0192325, -0.00130667, -0.0230292, 0.0318327, 0.0226283, 
    0.0490506, 0.0252202, 0.0148549, 0.0509762, 0.00350508
    },{
    -0.00480952, -0.00457102, 0.0264085, -0.0372048, 0.013397, 
    0.0419727, 0.0462509, 0.0110643, 0.0469549, 0.0159046, 
    -0.00226943, 0.000135343, -0.00828904, -0.0574105, -0.0102287, 
    -0.0204915, -0.00780253, -0.0276176, 0.0118268, 0.0606847, 
    0.00499425, 0.0286794, -0.0177044, 0.000305498, 0.0487467
    },{
    -0.0280913, -0.00335863, -0.0322796, -0.00234569, -0.0143919, 
    -0.0250225, 0.00570464, 0.043023, -0.00585071, 0.00524259, 
    0.0137882, -0.0214158, -0.0375862, 0.00312635, 0.0175397, 
    -0.0334545, 0.00716235, 0.0369073, 0.0210259, 0.0160661, 
    0.0025693, -0.0462113, -0.019908, -0.00999084, -0.0419071
    },{
    0.0319388, -0.0424097, -0.0244467, 0.0240626, -0.0329821, 
    -0.0655004, 0.0110628, 0.00798962, 0.0248346, -0.0508525, 
    -0.000105678, -0.0333822, 0.0265788, 0.0342257, -0.00173397, 
    -0.00756891, 0.0332966, -0.00195654, 0.0314857, 0.000470444, 
    0.0186838, 0.0742057, 0.0242302, -0.0169707, -0.0129318
    },{
    -0.0365077, 0.00210067, 0.012952, 0.0438412, 0.0428639, 
    -0.0240304, -0.0479356, 0.0234398, 0.0115089, -0.0219101, 
    0.00132983, -0.0161849, -0.0418221, 0.057955, -0.00904972, 
    -0.0132691, 0.0252974, 0.0566222, -0.0199135, -0.0189552, 
    -0.0267693, 0.0297386, 0.0260925, -0.053358, -0.0122675
    },{
    -0.0246227, -0.0366358, 0.00795095, 0.0205205, 0.0318351, 
    -0.0394869, -0.0474916, -0.0323972, -0.0212856, 0.0340146, 
    -0.040959, -0.0236255, 0.0366415, -0.0195474, 0.00591824, 
    0.0265438, -0.0253028, 0.0421461, 0.0253388, -0.0464086, 
    0.0682753, 0.0115368, 0.0260818, -5.56818e-05, 0.0415951
    },{
    0.0279598, 0.0079134, 0.00365558, 0.014725, 0.0279228, 
    -0.00582645, -0.0119755, -0.0320855, -0.025335, 0.0227335, 
    0.0160032, -0.0285338, -0.0215522, -0.0195754, 0.00801763, 
    -0.00475138, -0.0382487, -0.00793525, -0.0253443, 0.0222436, 
    0.018217, -0.00742583, 0.00694628, -0.0116441, 0.0208867
    },{
    0.000891292, 0.0374291, -0.0623539, -0.0333938, -0.0300451, 
    0.0357836, -0.022119, 0.0151251, -0.0136769, 0.0301215, 
    0.0201213, 0.00675488, -0.0137016, 0.015266, -0.00515671, 
    0.0237981, -0.0178945, -0.0412246, -0.0197714, 0.0281641, 
    0.00132611, -0.0398538, 0.000532577, -0.0185757, -0.0314216
    },{
    -0.018091, 0.0131008, 0.0369721, 0.0382118, -0.0519805, 
    -0.0280119, -0.0312108, 0.00366685, 0.00255137, -0.0213167, 
    0.0013258, 0.0504793, -0.0240836, -0.0440537, 0.0353251, 
    0.0268675, 0.0390482, -0.0544254, -0.0138751, -0.0442576, 
    0.0113057, 0.00255477, -0.00181723, 0.0149006, 0.0151265
    },{
    -0.0359443, -0.0220391, -0.0181996, 0.00777829, -0.00540532, 
    0.0382211, 0.0440803, 0.0299689, 0.00529939, 0.00113292, 
    -0.00374969, 0.00679156, 0.0195243, -0.0134385, -0.016274, 
    -0.00643781, -0.0175783, 0.0105319, -0.0006674, -0.0157038, 
    0.0165008, 0.0237408, 0.0236769, 0.041523, 0.0704158
    },{
    0.019124, 0.0327185, 0.00132876, 0.0273569, 0.0597483, 
    0.00543335, 0.0558972, 0.0164763, 0.065892, 0.0216315, 
    0.0260724, 0.0554877, 0.0143446, -0.0423402, 0.029923, 
    -0.0717608, 0.022801, 0.0248506, 0.0642611, 0.0564693, 
    -0.044809, -0.0733268, 0.00567371, 0.00291288, 0.0904425
    },{
    -0.0283455, -0.0527413, 0.0224752, -0.0122755, -0.0319607, 
    -0.0800666, -0.0346292, -0.033215, -0.0322749, -0.00667892, 
    -0.0730787, 0.0512111, 0.0342458, -0.0503447, 0.0894914, 
    -0.00922187, -0.00320995, 0.00834938, 0.0245268, 0.0130466, 
    0.0153206, -0.0742393, 0.0039456, 0.00446623, 0.0769918
    },{
    -0.00142423, 0.0608444, -0.00187865, 0.0346311, 0.0170111, 
    0.0248649, -0.0180705, 0.0138093, 0.0314627, -0.0310651, 
    0.0165126, 0.0644482, 0.0360516, 0.0338435, -0.0177443, 
    -0.0271205, -0.0117179, 0.00384921, 0.0491898, 0.00695666, 
    -0.0281697, -0.0250078, -0.00821066, 0.0858784, 0.0130292
    },{
    0.00724349, 0.019576, 0.0741616, -0.000275158, 0.0593825, 
    0.00525066, 0.0259214, 0.0861196, -0.00997777, -0.0354962, 
    0.042636, 0.111084, 0.0419529, 0.0614944, -0.00829394, 
    0.00359523, 0.0775795, 0.0739429, 0.00329227, -0.0778105, 
    0.0449674, 0.038343, -0.00214833, -0.000129855, 0.0339497
    },{
    0.0660956, 0.0366766, -0.015294, 0.051713, 0.0490792, 
    -0.0639948, -0.0727048, 0.0607238, 0.0245069, 0.00634155, 
    -0.0250686, -0.0166977, 0.0645115, 0.068705, 0.0760518, 
    0.00990473, -0.08161, 0.0447522, -0.0398469, 0.00549006, 
    0.0562323, 0.0697394, 0.0426566, 0.0144257, 0.0333181
    },{
    -0.0600566, -0.0206016, -0.070504, 0.00742832, 0.010599, 
    -0.0387861, -0.037288, -0.0428904, -0.0730521, -0.0387817, 
    0.0167621, 0.00963382, 0.0037357, -0.017978, 0.00567712, 
    0.0193411, -0.057491, -0.0010255, 0.0289054, -0.0109036, 
    -0.0453386, 0.0220433, -0.04045, 0.0670138, -0.0159218
    },{
    -0.0049204, 0.00598456, -0.00910822, -0.0274595, -0.00436298, 
    0.0419122, -0.0231586, -0.00197253, 0.0249074, -0.0314314, 
    0.00234242, -0.058364, -0.0339586, 0.0201279, -0.00871383, 
    0.034824, -0.0130073, -0.0861649, -0.123258, 0.0377735, 
    0.0156271, 0.00390141, 0.0020061, -0.00853903, 0.0587092
    },{
    -0.0759627, -0.033392, -0.0397169, 0.0378631, 0.0100186, 
    -0.0174106, -0.00862975, 0.0203042, -0.0310243, -0.00335118, 
    0.0450254, 0.00987659, -0.0207324, -0.0943468, -0.104722, 
    -0.0160695, -0.0602375, 0.00525333, -0.0141497, 0.025914, 
    -0.0271097, 0.0497145, 0.0603867, -0.0262371, -0.02788
    },{
    0.00836478, -0.00097987, -0.0306729, -0.0118406, -0.0309044, 
    0.0292628, -0.00238934, 0.0277481, -0.0135536, 0.0468881, 
    0.019108, -0.082913, -0.0143014, 0.000609515, -0.0205043, 
    -0.00422244, -0.0516492, -0.0655378, -0.0941977, -0.0660969, 
    -0.0335268, 0.0480269, -0.0103334, -0.07641, -0.0184732
    },{
    -0.0639258, -0.0231608, -0.0928044, -0.0169692, -0.0139022, 
    0.00974097, -0.0438217, -0.0165177, 0.0291194, -0.0875419, 
    0.0324227, 0.0216232, -0.0312642, 0.0238096, 0.04916, 
    -0.00225378, 0.0200646, -0.0153396, 0.0728398, -0.00558487, 
    -0.0585434, -0.049623, -0.00887118, 0.00631345, -0.0179226
    },{
    0.0191283, -0.0651132, -0.015211, 0.0575986, 0.0260443, 
    -0.0223434, -0.00473722, -0.00759361, 0.0679179, 0.0206648, 
    -0.00934129, 0.0263321, -0.0202282, 0.0100054, -0.0241276, 
    -0.0659722, 0.0888043, -0.0119728, 0.0183112, 0.0114784, 
    0.0280212, -0.0491521, -0.0293922, 0.0110867, 0.0675994
    },{
    0.00428834, 0.0308072, 0.0192263, 0.0247146, 0.0702837, 
    0.0306251, 0.0739038, 0.000493364, -0.0324014, 0.0115382, 
    0.0142862, -0.00325234, -0.0343143, -0.030852, 0.0239734, 
    0.0236242, 0.0886784, 0.0569214, -0.0239871, -0.0213361, 
    0.0532207, 0.00517582, 0.0357178, 0.047354, 0.0822319
    },{
    0.0057326, 0.0326853, 0.0528893, 0.105178, 0.0382728, 
    -0.0112955, 0.0593669, 0.0717989, 0.0740383, 0.0732136, 
    -0.0146799, -0.0124456, 0.0360441, 0.0668686, 0.0653182, 
    0.0843323, -0.04159, -0.00944529, 0.000455811, 0.0799488, 
    0.0132252, 0.0620118, 0.115305, 0.0978047, 0.0484151
    },{
    0.101518, 0.118064, 0.101117, -0.0100596, -0.0464772, 
    0.0961708, -0.066391, 0.0856253, 0.0688915, -0.0201291, 
    0.101861, -0.0310397, 0.0663585, 0.0872453, 0.0266503, 
    0.0673024, 0.0147474, 0.0187403, 0.0121836, -0.0659886, 
    0.044607, 0.0723289, 0.0387359, -0.0356053, -0.0195764
    },{
    -0.0453891, 0.0934961, 0.0103028, 0.021679, -0.0428617, 
    0.0327247, 0.0590515, 0.0192449, 0.0650846, 0.0216126, 
    0.122484, 0.0586247, 0.019006, 0.078222, 0.0522001, 
    -0.0203055, 0.00629322, 0.104965, 0.0468263, -0.0386746, 
    0.00123553, 0.0256345, 0.1117, -0.00675932, -0.0450909
    },{
    -0.0100844, -0.025292, -0.0167434, 0.0162195, -0.0353844, 
    0.0420845, -0.0381997, 0.0155672, 0.0721524, -0.02216, 
    0.0408357, -0.00149819, 0.0145655, 0.0609913, -0.0400058, 
    0.0325452, 0.0643218, 0.0347605, 0.0233345, -0.0389282, 
    0.00640366, 0.0793674, 0.0537528, 0.0766672, -0.019429
    },{
    0.066259, 0.0546238, 0.0450432, 0.0440692, 0.00285343, 
    -0.0121465, 0.0377371, -0.00416358, -0.0146122, -0.00732143, 
    -0.0201274, 0.0107026, -0.041591, 0.0408142, -0.0330282, 
    -0.013254, -0.00947579, -0.0479943, -0.0208495, -0.0604476, 
    -0.00371271, 0.0155644, 0.0264268, 0.013346, -0.0329966
    },{
    0.0342996, -0.00579435, -0.0457694, -0.0195984, -0.0452059, 
    -0.0056539, 0.00977943, -0.0492821, 0.0590357, -0.00173257, 
    -0.058827, -0.00557403, -0.0113494, 0.0160578, -0.0258821, 
    0.0478894, -0.0279116, -0.0260616, -0.0523817, -0.0410668, 
    -0.0279177, 0.0303459, -0.0115621, 0.0126065, 0.00660625
    },{
    -0.0324408, 0.000421758, 0.0262887, -0.0679348, 0.0168678, 
    -0.0480954, -0.0256993, 0.00442698, -0.0310656, 0.00733164, 
    -0.040962, 0.0200064, 0.024543, 0.00985721, 0.0301877, 
    -0.0493279, 0.0139847, -0.0333343, 0.0190369, 0.055448, 
    -0.00140878, 0.0228882, 0.0149606, -0.0165186, -0.0150748
    },{
    0.0210975, 0.0422346, -0.0562686, -0.0154361, -0.0456744, 
    -0.0094938, -0.0247277, 0.036573, 0.0636023, 0.0243728, 
    0.0033787, 0.0404089, 0.0156783, 0.00333189, 0.0296506, 
    -0.0120866, -0.0296455, 0.0110112, 0.0186229, 0.0812246, 
    0.0022539, -0.0287601, 0.00182067, 0.0475163, 0.00757558
    },{
    -0.0178779, 0.0352828, 0.0556231, 0.016398, -0.0524448, 
    -0.0262945, -0.042139, 0.0183153, -0.0255149, -0.0877504, 
    0.018064, -0.0432309, -0.017636, 0.0441693, -0.0981583, 
    -0.00377714, 0.00350314, 0.0670851, 0.0199064, -0.0493799, 
    0.00147638, -0.0623436, 0.00431867, -0.0129209, 0.049803
    },{
    0.0440971, 0.0394683, -0.00997596, 0.0251147, 0.010189, 
    -0.0169807, 0.0416898, -0.0212417, 0.0347477, -0.0529626, 
    0.0454943, 0.00452903, -0.0495584, -0.0215102, 0.00526567, 
    0.0167495, 0.00120088, 0.00927534, -0.0269484, -0.00244103, 
    -0.0685733, -0.0616143, -0.0618543, -0.0540604, -0.00713719
    },{
    -0.0231036, -0.018457, 0.00633142, -0.00311246, -0.0103329, 
    0.00873149, 0.045078, 0.0243238, 0.0139833, 0.0236091, 
    0.00894867, 0.103232, 0.0615055, 0.00462128, 0.0113173, 
    -0.0135128, -0.00382935, 0.0359783, 0.0034042, -0.03349, 
    -0.0184018, -0.046201, -0.0413954, -0.00704269, -0.0171131
    },{
    0.0550617, 0.0260529, -0.00959636, -0.00899371, -0.0124733, 
    -0.047952, 0.00686952, 0.0418394, 0.015599, -0.0133335, 
    -0.0102755, 0.0604551, 0.0356969, 0.00831474, 0.0532876, 
    0.0395527, -0.0439176, -0.0064122, 0.00368046, 0.000103919, 
    0.0183416, -0.0316271, -0.0342036, -0.0133882, 0.00613092
    },{
    -0.0175085, 0.0643655, 0.0084524, 0.0226121, 0.0322639, 
    -0.0164333, 0.0216676, 0.00988526, -0.0152536, 0.0248007, 
    0.00979105, -0.00474284, -0.0115443, 0.016516, -0.0215365, 
    -0.0299954, 0.0415249, 0.0153335, 0.00147474, 0.00433861, 
    0.0334497, 0.00331629, -0.00805209, -0.0249923, 0.0350124
    },{
    -0.0208533, -0.0187787, 0.0409981, -0.0547011, -0.0215036, 
    -0.0213356, -0.00334236, 0.00188312, 0.0234655, 0.0626527, 
    0.0143737, 0.014533, 0.0395705, -0.0447547, 0.00797913, 
    -0.00517701, -0.0572325, -0.055213, -0.0298006, 0.0198986, 
    0.0536134, -0.016652, 0.00624024, -0.00578391, -0.00659036
    },{
    -0.0242752, 0.00133524, -0.049705, -0.01444, -0.0184998, 
    0.0317714, -0.0357135, 0.00944053, -0.0547777, -0.0541361, 
    0.00483301, -0.0798996, -0.0129373, -0.0295528, 0.0577739, 
    -0.00446816, -0.0321939, 0.0188495, 0.00791345, 0.0183007, 
    -0.036339, 0.0650828, -0.00118954, 0.0217288, -0.0260052
    },{
    -0.0644554, -0.0794854, -0.0501093, 0.00626483, -0.055301, 
    -0.00144933, 0.00963016, 0.00543191, 0.0313411, -0.0277561, 
    0.0327889, 0.00602907, 0.00941152, 0.015105, 0.053587, 
    -0.00869086, -0.0790575, -0.0633215, 0.0371921, 0.0419143, 
    -0.00597691, -0.049903, 0.0273198, -0.000305327, -0.0298074
    },{
    0.0158571, -0.0103629, 0.0258219, -0.0165289, 0.0458988, 
    0.0142595, -0.00935205, -0.000126021, -0.0692444, -0.027557, 
    0.0110106, 0.0663653, -0.0337272, 0.00131128, -0.0102723, 
    -0.0568489, 0.0327149, 0.0757728, 0.0587899, -0.000840834, 
    -0.0433361, -0.0593123, 0.0211049, -0.0400712, -0.0381261
    },{
    -0.0207854, -0.0186185, -0.00504634, -0.0341378, 0.00558068, 
    -0.0290971, 0.051336, 0.0244582, 0.0213096, 0.0388079, 
    -0.0481221, 0.024497, -0.0108207, 0.018158, 0.0196586, 
    0.00205129, 0.0571559, 0.0304398, -0.0211209, 0.026671, 
    -0.00344321, -0.0162502, -0.0378213, -0.0162031, -0.00203832
    },{
    -0.000544245, 0.0304027, 0.0335548, -0.0423581, 0.0428784, 
    0.0175784, 0.0308947, 0.000759381, -0.0137295, 0.0488389, 
    -0.00817973, 0.0273948, -0.0418129, 0.0134174, -0.011988, 
    0.0314956, 0.0212794, -0.0178077, 0.0203413, 0.0305363, 
    0.0619289, 0.00891273, -0.00189093, 0.0241384, -0.0204437
    },{
    0.0131262, -0.0234617, -0.0450664, 0.0274157, 0.0129272, 
    0.00308755, 0.0367643, 0.0426629, 0.0407029, 0.00359042, 
    0.0158451, -0.000922824, 0.0676789, 0.0250927, -0.0288509, 
    -0.0320201, -0.0266313, -0.0290403, -0.0382029, 0.0537117, 
    -0.0255654, -0.0102378, 0.000429202, -0.0845773, -0.00682468
    },{
    0.0640901, 0.0117044, -0.0223706, 0.0462151, -0.0430295, 
    -0.0218069, -0.0222886, -0.0182552, 0.0234102, -0.0708215, 
    -0.0394742, 0.0500162, -0.0172142, -0.0107117, 0.0564199, 
    0.0428521, 0.0515514, 0.00987381, 0.0119072, 0.0291226, 
    -0.00619955, 0.0303833, -0.000910172, -0.00560118, 0.00367097
    },{
    0.0363485, 0.016527, -0.00761817, 0.029603, -0.0335893, 
    0.0188053, -0.00694759, 0.00276243, -0.0185956, 0.0166269, 
    0.0361158, 0.0265453, 0.0546316, -0.0202334, 0.0487672, 
    0.00967515, -0.0129168, -0.0434909, -0.0102387, 0.0438728, 
    0.0217709, 0.0396801, -0.0466343, 0.0102091, -0.027973
    },{
    -0.0459429, 0.0102756, -0.0131633, 0.00069026, -0.01457, 
    -0.0177378, 0.0506405, 0.017331, -0.0517711, 0.00881186, 
    -0.0423364, -0.0266735, 0.0176723, -0.0122287, 0.0186932, 
    -0.0428153, -0.0352266, -0.0431831, -0.00229929, 0.00218716, 
    0.0290674, 0.0428105, 0.0190905, 0.0103851, -0.00640905
    },{
    -0.0586434, -0.00667218, -0.0280033, -0.0211754, -0.0230145, 
    -0.0181512, -0.0351445, -0.0455852, 0.00442134, 0.0337921, 
    0.0323439, 0.0187092, 0.0054232, 0.00589848, -0.020562, 
    -0.0409751, -0.0227515, 0.0183093, -0.0129038, -0.038443, 
    -0.0200369, -0.00740658, 0.0132339, 0.0590768, 0.0391573
    },{
    0.0294344, -0.0145448, -0.0186559, -0.0309429, -0.0302182, 
    0.0263828, 0.0592178, 0.00649159, -0.0419287, -0.037081, 
    -0.012371, 0.0470624, 0.0698811, 0.025414, -0.0309314, 
    -0.0426513, 0.0147041, -0.0196269, 0.0258375, -0.0242945, 
    -0.0036156, 0.0170683, 0.0230277, -0.0271152, 0.0191319
    },{
    0.00714075, -0.0453045, -0.0179836, 0.0190501, -0.00277797, 
    0.0278586, 0.0454084, 0.00295732, 0.0138198, 0.0396283, 
    0.0315024, 0.0181594, -0.0330043, 0.035877, -0.00832407, 
    0.0383998, 0.00317969, -0.0175844, 0.00866602, 0.0253831, 
    0.0285017, 0.0157127, -0.0311957, 0.0210657, 0.0272559
    },{
    0.0398396, 0.0351372, 0.0541783, 0.0550502, 0.0285085, 
    -0.0537991, 0.0152118, 0.0498877, 0.0159321, 0.0084259, 
    0.0134273, -0.0220028, -0.00331864, -0.013357, -0.0228004, 
    0.0384229, 0.000287402, -0.0220969, 0.0148865, 0.013593, 
    -0.0175232, -0.0230282, -0.0387538, 0.0489442, -0.024044
    },{
    0.0153571, 0.0393067, 0.0318696, 0.0290094, 0.0380007, 
    0.0108471, -0.00982886, -0.00251204, 0.0331076, -0.00801166, 
    0.00478488, 0.0330245, 0.0448902, -0.0311668, -0.00911751, 
    0.00056305, -0.0231453, -0.0522583, 0.0200295, -0.000161155, 
    -0.0334302, -0.0312241, 0.0287243, -0.00412538, 0.0255243
    },{
    0.00136539, 0.0231434, 0.0361762, -0.0291518, 0.0400449, 
    -0.024699, 0.0279797, 0.024775, 0.00309952, 0.0153647, 
    0.0249563, -0.0333878, 0.0139747, 0.0302877, -0.01597, 
    0.0483417, -0.0478203, -0.000296753, -0.0137628, 0.00344944, 
    0.0325555, -0.0205078, 0.0101816, -0.00688813, -0.0303258
    },{
    0.0241706, 0.0333847, -0.00524882, 0.0406287, -0.00604372, 
    -0.0389542, -0.0585708, -0.00700849, -0.0440431, 0.043362, 
    -0.0771727, -0.064057, -0.0161165, 0.0389022, 0.0124751, 
    0.0760301, 0.0653585, 0.0255728, -0.0116325, -0.0206639, 
    -0.0123444, 0.000768756, 0.0109884, 0.0260784, 0.01852
    },{
    0.0227686, -0.02564, -0.0647288, -0.054303, 0.0177276, 
    0.00991466, -0.016822, -0.00252001, -0.0180507, -0.0434429, 
    0.0245727, 0.0363075, -0.00836105, 0.040506, 0.011257, 
    0.00903911, -0.000567732, -0.0604081, -0.0245127, -0.032557, 
    0.0340234, -0.0389722, 0.0182609, -0.0289797, -0.0412755
    },{
    0.00312056, 0.0222612, 0.0253934, -0.01539, -0.0234733, 
    0.00333482, 0.0361303, -0.0372536, -7.46489e-05, -1.35271e-05, 
    -0.0297507, -0.0562852, -0.00280854, -0.042179, -0.00275788, 
    -0.0134073, 0.0515928, 0.040967, 0.0389657, 0.00816654, 
    0.0370946, 0.0293105, -0.027771, -0.0192905, 0.0504844
    },{
    -0.0486364, 0.029966, 0.00797143, -0.0175008, -0.0185213, 
    -0.0299536, 0.00571516, 0.0322776, 0.0142473, -0.0017825, 
    -0.0904451, 0.0340851, 0.0135765, 0.019907, -0.0293451, 
    0.0069527, 0.000802422, 0.0028427, -0.0338994, 0.00923896, 
    0.00634672, 0.0181009, -0.0246014, 0.0157337, -0.0345111
    },{
    -0.0355015, -0.00219395, -0.00113263, 0.0226512, -0.0189668, 
    -0.0118493, 0.0242382, -0.0148716, 0.00915242, -0.00236485, 
    -0.0293938, -0.0240082, -0.0268483, -0.0296622, -0.00854616, 
    0.0354988, -0.0630455, -0.0345976, -0.00665413, 0.0243894, 
    -0.00058474, -0.0317091, -0.0372298, 0.0142719, 0.0128359
    },{
    -0.0337939, 0.0381389, -0.000492108, 0.0307445, -0.0335039, 
    -0.0242727, 0.0247255, 0.00872403, 0.0282497, -0.016727, 
    0.0608705, 0.0540374, -0.0371254, -0.00397842, 0.0079542, 
    -0.00589888, -0.0044997, -0.0604208, 0.000505209, -0.00963004, 
    0.0200173, 0.00565077, -0.0241178, -0.0223023, -0.0236395
    },{
    -0.0314538, -0.0322759, -0.0168933, 0.0394394, 0.00301825, 
    -0.0352118, -0.0267019, -0.0187893, -0.0246382, -0.00611791, 
    0.0122681, 0.0306726, -0.0421369, -0.0399102, -0.0345175, 
    0.0360664, 0.0306967, 0.0493316, 0.0270709, -0.0183733, 
    0.0442442, 0.028025, -0.0171397, -0.0134772, -0.0644668
    },{
    0.0178384, -0.0219778, 0.00623079, -0.0290349, 0.0269241, 
    -0.0282101, -0.0219475, 0.0126823, -0.0197712, 0.0271527, 
    -0.00733545, 0.0124613, 0.00999277, 0.012829, -0.0497118, 
    0.0659516, 0.0115492, 0.00549493, 0.0180505, 0.00739908, 
    0.0484581, 0.0298182, 0.0364103, 0.0225864, -0.0145436
    },{
    0.0611264, 0.0899307, 0.0603695, 0.0454497, 0.0541923, 
    0.0229209, -0.0264298, -0.0116104, -0.0237879, 0.0102719, 
    -0.0341633, -0.0220998, -0.0197672, 0.0341266, 0.0117238, 
    0.0210138, -0.0199005, 0.0331977, -0.0193355, 0.0239677, 
    0.00820741, 0.028853, 0.014935, -0.0105556, 0.0111134
    },{
    0.0506863, 0.0086706, 0.033408, -0.0612924, -0.0452783, 
    0.0268509, -0.0391768, -0.0185176, -0.0109421, 0.0084342, 
    0.0378844, 0.0239726, -0.0332232, 0.0152732, 0.0635432, 
    0.0573993, -0.0148416, 0.0368958, 0.010664, 0.0372971, 
    -0.021131, 0.0159653, -0.00690413, -0.0195388, -0.0512683
    },{
    -0.0489476, -0.0196384, 0.049877, -0.0452725, -0.0269422, 
    -0.0608083, -0.00602622, 0.0112162, 0.0137581, 0.0442139, 
    -0.0328843, 0.023888, -0.0287689, 0.00968424, 0.0274357, 
    -0.0267274, -0.00474458, -0.0438128, -0.0016172, -0.0187141, 
    0.00303858, -0.00574216, -0.0467572, -0.0243807, -0.0340764
    },{
    0.0168246, 0.0255744, 0.0517265, 0.0442251, 0.04047, 
    -0.00265975, -0.00657147, -0.0377007, -0.0371913, 0.00696775, 
    0.00647302, 0.0494233, 0.0649946, 0.0856571, -0.00692774, 
    -0.00084295, 0.039166, -0.0336476, 0.0433828, 0.0877352, 
    -0.0411568, -0.00285275, -0.00815797, 0.0113029, -0.0386018
    },{
    0.000421541, 0.0843895, -0.0147563, -0.0502981, -0.00353664, 
    -0.00963448, -0.00639024, -0.00868629, -0.0142713, 0.0532942, 
    0.0346583, 0.00607798, 0.0117311, 0.010191, 0.0798197, 
    -0.0078556, -0.0213738, 0.0548818, -0.0199282, 0.0635967, 
    0.0361426, -0.0715863, 0.0316864, 0.041624, 0.02148
    },{
    0.0153, 0.0171072, -0.0125184, -0.0148423, 0.0103258, 
    0.0350214, -0.0101532, 0.0777612, 0.00777477, 0.00233061, 
    -0.0112757, 0.067402, 0.0332986, 0.00119622, 0.0148722, 
    -0.057192, 0.0305211, -0.0247094, 0.0267421, 0.0308342, 
    0.0532966, -0.0100873, -0.0515006, 0.0401261, -0.00545954
    },{
    0.0373775, 0.0312751, 0.0401545, 0.0165632, -0.0152909, 
    0.029827, -0.00358753, 0.0137337, -0.0311231, -0.0197844, 
    -0.0409628, -0.0270694, 0.0474779, 0.0329109, 0.0434634, 
    -0.00115378, 0.0349528, 0.0855401, -0.0329184, -0.0397083, 
    0.00290438, 0.00167307, 0.0113842, -0.0367738, -0.00642937
    },{
    0.00249619, -0.0995684, -0.0473842, 0.0275168, 0.0423789, 
    0.0206016, -0.0416302, 0.0135519, 0.0203931, 0.0357427, 
    -0.0344153, 0.0555991, -0.00332384, -0.0430878, -0.0250147, 
    -0.00245798, 0.0435327, -0.0144336, 0.00818801, 0.0270789, 
    0.0404654, 0.016893, -0.0199161, 0.0394711, 0.0277904
    },{
    0.048499, 0.0658084, 0.0753537, 0.0680798, -0.00489728, 
    0.0151413, -0.0312277, -0.012942, 0.0561717, 0.0815239, 
    0.0413501, -0.00961625, -0.0453801, 0.0133253, -0.0529342, 
    0.010454, -0.0321859, -0.022674, -0.00673367, -0.0147453, 
    0.0339096, 0.0406678, 0.0286233, -0.0508369, 0.00100519
    },{
    -0.00806229, 0.0637213, -0.0126778, -0.00803448, -0.0182557, 
    -0.0243259, 0.00776605, -0.0369291, 0.0007659, -0.00245673, 
    -0.044679, 0.0280515, 0.00338052, 0.0111912, 0.0398616, 
    -0.0139238, -0.0676373, -0.0306087, 0.0318334, -0.00710379, 
    0.0133164, -0.0277523, 0.0245636, 0.0370178, -0.022692
    },{
    0.0369074, -0.0224168, 0.0467496, -0.00649829, -0.0659562, 
    0.0569616, 0.0733683, 0.0899128, 0.0517634, 0.0481875, 
    -0.00507444, -0.0387324, -0.0169423, 0.0205243, -0.0246413, 
    -0.061314, -0.0603867, -0.105086, -0.0473162, -0.0203068, 
    -0.0233698, -0.0337972, 0.0259433, 0.0473673, -0.0303474
    },{
    0.00753488, -0.0561212, -0.0593588, -0.0257154, -0.0160371, 
    0.0315507, -0.0518468, -0.0755642, 0.00369917, -0.0705723, 
    0.0232519, 0.0357487, -0.0356577, -0.0225684, 0.0229222, 
    -0.0709375, 0.00575559, -0.000543944, 0.0293485, -0.0334547, 
    -0.0386219, -0.0520171, -0.0803941, -0.081532, 0.012927
    },{
    -0.00819811, -0.0347141, -0.0609622, -0.0501223, -0.0489257, 
    -0.0493386, -0.00875683, 0.0108553, 0.00405858, 0.00712372, 
    -0.0348881, -0.0218902, 0.0110373, 0.00916343, -0.015885, 
    -0.0549927, -0.0285514, -0.0677778, -0.0130189, -0.0251068, 
    0.0321571, 0.00706634, -0.0223859, 0.00619075, -0.0352322
    },{
    0.00905967, 0.0449859, 0.0119573, -0.0261655, 0.0260988, 
    0.00782292, -0.00682638, -0.0110848, -0.0504712, -0.0112046, 
    -0.0708555, -0.0101793, 0.0313735, -0.0428441, -0.00870663, 
    0.0198473, -0.00904208, -0.0284101, -0.0400055, -0.0195289, 
    0.0455814, -0.00595583, 0.0187368, -0.047187, -0.0195183
    },{
    0.0153942, -0.0167041, -0.0060293, -0.0410822, 0.0241285, 
    0.0425248, 0.0448385, -0.0257152, 0.00810348, -0.0148063, 
    -0.0608918, -0.0535419, 0.0354233, -0.0125886, -0.0131783, 
    -0.0649703, -0.0507061, -0.0238556, -0.0496064, 0.0260969, 
    -0.0418293, -0.00909189, -0.0362253, 0.0390926, -0.00258884
    },{
    -0.00640386, -0.0294223, -0.0114509, -0.0921027, -0.0636911, 
    0.065045, 0.0701166, 0.0261387, -0.00866105, -0.000962247, 
    0.049111, 0.0557219, 0.0199848, 0.0374092, -0.0156603, 
    -0.0840336, -0.0603279, -0.0172439, 0.00835523, -0.00128492, 
    -0.00573134, -0.028365, -0.0700713, 0.0536957, 0.0153537
    },{
    -0.0584699, -0.0361868, -0.0257683, -0.0806223, -0.0430492, 
    -0.0438938, -0.0211922, -0.00818448, -0.0370441, 0.0222337, 
    -0.00959491, 0.0456949, 0.0640909, -0.00225085, -0.00466856, 
    -0.0250879, -0.0192626, -0.0488163, 0.0017464, 0.00798226, 
    -0.0057076, 0.00657972, -0.00744352, -0.0521776, 0.0152899
    },{
    -0.0301519, -0.0314777, 0.00659921, -0.0130675, 0.0828927, 
    -0.00865223, -0.0204639, 0.00993453, 0.00759068, 0.0663477, 
    -0.00176266, -0.0315485, 0.0461178, 0.0282499, 0.0152809, 
    -0.00975768, 0.0328623, 0.0181299, -0.00236332, -0.00820501, 
    -0.068993, -0.0210587, 0.0174997, 0.0345834, -0.0492189
    },{
    0.0261351, -0.0011412, 0.00355606, 0.00221388, -0.0241073, 
    -0.0509205, 0.0069917, -0.00974928, -0.0228362, -0.0597657, 
    -0.0123192, 0.0532519, -0.0398479, -0.00663128, 9.16528e-05, 
    0.0249111, 0.0225389, 0.0384315, -0.00484406, -0.0152275, 
    0.018766, -0.0184786, 0.0539094, 0.0491167, -0.00329623
    },{
    -0.00881637, 0.00785983, -0.00944293, 0.0314298, -0.00315841, 
    -0.0364123, 0.0461552, -0.0320791, 0.0368714, 0.0313035, 
    -0.0120413, -0.0736741, -0.00205512, -0.0475119, -0.0533854, 
    -0.0122308, -0.0662651, -0.0541626, -0.0324988, 0.0156384, 
    0.0136595, 0.0355816, 0.0206633, 0.032784, -0.00337791
    },{
    -0.0269815, 0.0394281, -0.0646386, 0.00660479, -0.0131527, 
    0.0360806, 0.0168083, 0.00471012, 0.00574675, -0.0074996, 
    -0.0309617, 0.00708494, 0.0107796, -0.0131129, 0.00923805, 
    -0.0238963, -0.00270954, -0.0241749, 0.0186975, 0.0162617, 
    -0.0106217, -0.0221016, 0.0230816, 0.0495239, 0.0114686
    },{
    0.00363501, -0.0321948, -0.067158, -0.00969934, -0.0362559, 
    -0.0259033, 0.0139547, -0.0791219, -0.0166721, -0.0204469, 
    -0.00273302, -0.0623983, -0.0117536, -0.0229123, -0.0397008, 
    0.023957, -0.0260922, 0.0287364, -0.0154052, 0.00367777, 
    -0.0312026, 0.0295326, 0.00282383, -0.0274321, 0.0498831
    },{
    -0.0176606, 0.0171513, -0.0254858, 0.0284053, -0.0336298, 
    -0.0154265, -0.019887, -0.0447525, -0.000419838, -0.00291095, 
    0.0397033, 0.0147736, -0.0124528, 0.0102062, -0.0227961, 
    0.0098428, 0.0186908, 0.0564963, 0.0429366, -0.0379264, 
    0.0142941, -0.0648352, -0.0433294, -0.0561587, -0.0620552
    },{
    0.0180194, 0.00751216, 0.00558368, -0.0357131, -0.0147092, 
    0.0252798, -0.0293529, -0.0132474, 0.0134914, -0.0166356, 
    0.0102627, -0.059001, 0.0114196, 0.0305437, 0.0206165, 
    0.00487778, 0.0164261, -0.0528753, -0.026514, -0.0751322, 
    -0.0305393, 0.0264921, 0.0155071, -0.0264124, 0.00375078
    },{
    -0.0278028, -0.0410727, -0.0632866, -0.0720052, -0.0437524, 
    -0.0183392, -0.0620808, -0.089283, -0.0322903, -0.0286273, 
    0.0426349, 0.00564823, 0.030146, 0.0486295, 0.0274593, 
    -0.0602375, 0.0200275, -0.0195189, 0.0037519, 0.062809, 
    -0.0440172, 0.0116682, 0.00626029, 0.0336801, 0.0137015
    },{
    -0.0127702, -0.0212215, 0.0313063, -0.0427392, 0.00453018, 
    -0.0155998, -0.00113904, 0.019141, 0.0508223, -0.0122954, 
    0.00688659, 0.040594, 0.0147604, -0.00973111, 0.00425098, 
    -0.0464603, -0.0312904, -0.000838246, -0.0615589, 0.0120523, 
    -0.0138484, 0.00984466, -0.0387884, -0.031611, 0.028501
    },{
    -0.0221356, 0.0562312, 0.0122169, 0.0313394, -0.035646, 
    -0.0415869, -0.0457181, -0.0226539, -0.0672588, -0.0152425, 
    0.000340782, -0.0248535, 0.0385098, 0.0442062, 9.94007e-05, 
    0.0100833, 0.0243374, 0.0284167, 0.0199863, -0.0383865, 
    0.0238226, -0.0361825, -0.0177522, 0.0109572, 0.0313902
    },{
    0.0205153, 0.0288097, 0.0166485, 0.0131055, 0.0156977, 
    0.0233475, -0.0330208, 0.0258332, 0.0746, -0.0141948, 
